t0 t1 t103 t43 ||| t0 t1 t36 ||| 0.00680272 2.36368e-05 0.666667 0.0438203 2.718 ||| 0-0 1-1 2-2 3-2 ||| 294 3 2
t0 t1 t2 t3 t20 t29 t45 ||| t0 t2 t3 t20 t29 t45 ||| 0.285714 0.00194524 1 0.0176529 2.718 ||| 0-0 1-1 2-1 3-2 4-3 5-4 6-5 ||| 7 2 2
t0 t1 t2 t3 t4 t1 ||| t0 t1 t3 t4 t1 ||| 0.0352941 0.00303964 0.75 0.0491223 2.718 ||| 0-0 1-1 2-1 3-2 4-3 5-4 ||| 85 4 3
t0 t1 t2 t791 t2 t3 t4 ||| t74 t1 t2 t791 t2 t3 t4 ||| 1 0.000522625 1 0.00109248 2.718 ||| 0-0 1-1 2-2 3-3 4-4 5-5 6-6 ||| 2 2 2
t0 t1 t2 t791 t2 t3 ||| t74 t1 t2 t791 t2 t3 ||| 1 0.00102484 1 0.00201364 2.718 ||| 0-0 1-1 2-2 3-3 4-4 5-5 ||| 2 2 2
t0 t1 t2 t791 t2 ||| t74 t1 t2 t791 t2 ||| 1 0.00135223 1 0.00270928 2.718 ||| 0-0 1-1 2-2 3-3 4-4 ||| 2 2 2
t0 t1 t2 t791 ||| t74 t1 t2 t791 ||| 1 0.00241304 1 0.00622533 2.718 ||| 0-0 1-1 2-2 3-3 ||| 2 2 2
t0 t1 t3 t1 t2 t2 t3 ||| t0 t1 t3 t1 t2 t2 t3 ||| 1 0.0294482 1 0.0221119 2.718 ||| 0-0 1-1 2-2 3-3 4-4 5-5 6-6 ||| 2 2 2
t0 t1 t3 t1 t2 t2 ||| t0 t1 t3 t1 t2 t2 ||| 1 0.0388554 1 0.0297508 2.718 ||| 0-0 1-1 2-2 3-3 4-4 5-5 ||| 2 2 2
t0 t1 t3 t1 t2 ||| t0 t1 t3 t1 t2 ||| 1 0.069337 0.75 0.0683606 2.718 ||| 0-0 1-1 2-2 3-3 4-4 ||| 3 4 3
t0 t1 t3 t1 t36 t3 ||| t0 t1 t3 t20 t1 t36 t3 ||| 0.222222 0.0544997 0.666667 0.00329346 2.718 ||| 0-0 1-1 2-2 3-4 4-5 5-6 ||| 9 3 2
t0 t1 t3 t1 t36 ||| t0 t1 t3 t20 t1 t36 ||| 0.181818 0.0719097 0.666667 0.00443125 2.718 ||| 0-0 1-1 2-2 3-4 4-5 ||| 11 3 2
t0 t1 t3 t154 ||| t0 t1 t3 t74 ||| 0.2 0.00542605 0.75 0.0145918 2.718 ||| 0-0 1-1 2-2 3-3 ||| 15 4 3
t0 t1 t3 t187 t640 ||| t0 t1 t3 t187 t51 ||| 1 0.000443251 1 0.00388827 2.718 ||| 0-0 1-1 2-2 3-3 4-4 ||| 2 2 2
t0 t1 t3 t187 ||| t0 t1 t3 t187 ||| 0.666667 0.0723983 0.666667 0.0803575 2.718 ||| 0-0 1-1 2-2 3-3 ||| 3 3 2
t0 t1 t3 t20 t1 t3 t27 ||| t0 t1 t3 t20 t1 t3 t27 ||| 0.333333 0.0199596 1 0.02671 2.718 ||| 0-0 1-1 2-2 3-3 4-4 5-5 6-6 ||| 6 2 2
t0 t1 t3 t20 t1 t3 t4 ||| t0 t1 t3 t20 t1 t3 t4 ||| 0.142857 0.0253163 0.666667 0.0321095 2.718 ||| 0-0 1-1 2-2 3-3 4-4 5-5 6-6 ||| 14 3 2
t0 t1 t3 t20 t1 t3 t45 ||| t0 t1 t3 t20 t1 t3 t45 ||| 1 0.0270632 1 0.0375872 2.718 ||| 0-0 1-1 2-2 3-3 4-4 5-5 6-6 ||| 2 2 2
t0 t1 t3 t20 t1 ||| t0 t593 t1 t3 t20 t1 ||| 0.666667 0.0389357 0.0465116 0.000110805 2.718 ||| 0-0 1-1 1-2 2-3 3-4 4-5 ||| 3 43 2
t0 t1 t3 t20 t154 ||| t0 t1 t3 t20 t154 ||| 0.25 0.0612326 0.666667 0.0791607 2.718 ||| 0-0 1-1 2-2 3-3 4-4 ||| 8 3 2
t0 t1 t3 t20 t29 t23 ||| t0 t1 t3 t20 t113 t23 ||| 1 0.00895554 0.105263 0.000838149 2.718 ||| 0-0 1-1 2-2 3-3 4-4 5-5 ||| 2 19 2
t0 t1 t3 t20 t29 t45 t49 ||| t0 t1 t3 t20 t29 t45 t49 ||| 0.5 0.0235956 1 0.0416472 2.718 ||| 0-0 1-1 2-2 3-3 4-4 5-5 6-6 ||| 4 2 2
t0 t1 t3 t20 t29 t57 ||| t0 t1 t3 t20 t29 t57 ||| 0.5 0.0177172 1 0.0274256 2.718 ||| 0-0 1-1 2-2 3-3 4-4 5-5 ||| 4 2 2
t0 t1 t3 t20 t29 ||| t0 t1 t3 t20 t113 ||| 1 0.0150473 0.0294118 0.00137284 2.718 ||| 0-0 1-1 2-2 3-3 4-4 ||| 2 68 2
t0 t1 t3 t20 t3 t23 t49 ||| t0 t1 t3 t20 t3 t23 t49 ||| 0.75 0.0301274 0.75 0.0413522 2.718 ||| 0-0 1-1 2-2 3-3 4-4 5-5 6-6 ||| 4 4 3
t0 t1 t3 t20 t3 t4 ||| t0 t1 t3 t20 t3 t4 ||| 0.666667 0.0388396 0.4 0.0466754 2.718 ||| 0-0 1-1 2-2 3-3 4-4 5-5 ||| 3 5 2
t0 t1 t3 t20 t3 t45 ||| t0 t1 t3 t20 t3 t45 ||| 0.333333 0.0415196 0.75 0.054638 2.718 ||| 0-0 1-1 2-2 3-3 4-4 5-5 ||| 9 4 3
t0 t1 t3 t20 t74 ||| t0 t1 t3 t20 t74 ||| 0.333333 0.0567307 0.666667 0.063501 2.718 ||| 0-0 1-1 2-2 3-3 4-4 ||| 6 3 2
t0 t1 t3 t29 t27 t1 t3 ||| t0 t1 t3 t29 t27 t1 t3 ||| 0.5 0.0244326 0.666667 0.0379132 2.718 ||| 0-0 1-1 2-2 3-3 4-4 5-5 6-6 ||| 4 3 2
t0 t1 t3 t29 t27 t1 ||| t0 t1 t3 t29 t27 t1 ||| 0.666667 0.0322376 0.5 0.051011 2.718 ||| 0-0 1-1 2-2 3-3 4-4 5-5 ||| 3 4 2
t0 t1 t3 t4 t113 t20 ||| t0 t1 t3 t4 t1 t3 t20 ||| 0.0588235 0.000295052 1 0.000320898 2.718 ||| 0-0 1-1 2-2 3-3 4-4 4-5 5-6 ||| 34 2 2
t0 t1 t3 t4 t113 ||| t0 t1 t3 t4 t1 t3 ||| 0.030303 0.000557335 1 0.000633001 2.718 ||| 0-0 1-1 2-2 3-3 4-4 4-5 ||| 66 2 2
t0 t1 t3 t4 t2 t3 t20 ||| t0 t1 t3 t4 t2 t3 t20 ||| 0.222222 0.0217651 1 0.0203133 2.718 ||| 0-0 1-1 2-2 3-3 4-4 5-5 6-6 ||| 9 2 2
t0 t1 t3 t4 t30 t3 t20 ||| t0 t1 t3 t4 t30 t3 t20 ||| 0.333333 0.0244332 0.75 0.0301638 2.718 ||| 0-0 1-1 2-2 3-3 4-4 5-5 6-6 ||| 9 4 3
t0 t1 t3 t4 t30 t3 ||| t0 t1 t3 t4 t30 t3 ||| 0.285714 0.0461528 0.8 0.059501 2.718 ||| 0-0 1-1 2-2 3-3 4-4 5-5 ||| 14 5 4
t0 t1 t3 t4 t30 ||| t0 t1 t3 t4 t30 ||| 0.294118 0.0608963 0.714286 0.0800566 2.718 ||| 0-0 1-1 2-2 3-3 4-4 ||| 17 7 5
t0 t1 t36 t3 t20 t1 t36 ||| t0 t1 t36 t3 t20 t1 t36 ||| 0.25 0.0221247 0.666667 0.0218111 2.718 ||| 0-0 1-1 2-2 3-3 4-4 5-5 6-6 ||| 8 3 2
t0 t1 t36 t3 t20 t29 t27 ||| t0 t1 t36 t3 t20 t29 t27 ||| 0.4 0.0152169 1 0.0196735 2.718 ||| 0-0 1-1 2-2 3-3 4-4 5-5 6-6 ||| 5 2 2
t0 t1 t36 ||| t181 t752 t36 ||| 0.666667 0.00459524 0.00854701 1.70236e-07 2.718 ||| 0-0 1-1 2-2 ||| 3 234 2
t0 t103 t43 t3 ||| t0 t103 t43 t3 ||| 0.666667 0.0547686 1 0.050187 2.718 ||| 0-0 1-1 2-2 3-3 ||| 3 2 2
t0 t103 t43 ||| t0 t103 t43 ||| 0.4 0.0722644 1 0.067525 2.718 ||| 0-0 1-1 2-2 ||| 5 2 2
t0 t113 t20 t29 t27 ||| t0 t113 t20 t29 t27 ||| 1 0.0222165 0.285714 0.0230065 2.718 ||| 0-0 1-1 2-2 3-3 4-4 ||| 2 7 2
t0 t2 t3 t48 ||| t0 t2 t3 t48 ||| 0.75 0.0809758 0.5 0.073474 2.718 ||| 0-0 1-1 2-2 3-3 ||| 4 6 3
t0 t29 t20 t29 t45 ||| t0 t29 t20 t29 t45 ||| 0.666667 0.0465705 0.666667 0.0744482 2.718 ||| 0-0 1-1 2-2 3-3 4-4 ||| 3 3 2
t0 t29 t29 ||| t29 ||| 2.73041e-05 0.000436622 0.666667 0.490277 2.718 ||| 0-0 1-0 2-0 ||| 73249 3 2
t0 t3 t20 t0 t3 t20 ||| t0 t3 t20 t0 t3 t20 ||| 0.5 0.0237694 1 0.028312 2.718 ||| 0-0 1-1 2-2 3-3 4-4 5-5 ||| 4 2 2
t0 t3 t20 t0 t3 ||| t0 t3 t20 t0 t3 ||| 0.666667 0.0448989 1 0.0558481 2.718 ||| 0-0 1-1 2-2 3-3 4-4 ||| 3 2 2
t0 t3 t20 t23 ||| t0 t3 t20 t23 ||| 1 0.0917577 1 0.102728 2.718 ||| 0-0 1-1 2-2 3-3 ||| 2 2 2
t0 t3 t20 t29 t45 t23 ||| t0 t3 t20 t29 t45 t23 ||| 0.428571 0.0324155 0.75 0.0469467 2.718 ||| 0-0 1-1 2-2 3-3 4-4 5-5 ||| 7 4 3
t0 t3 t20 t29 t45 t49 ||| t0 t3 t20 t29 t45 t49 ||| 0.285714 0.0361998 1 0.0605398 2.718 ||| 0-0 1-1 2-2 3-3 4-4 5-5 ||| 7 2 2
t0 t3 t20 t3 t45 t23 ||| t0 t3 t20 t3 t45 t23 ||| 1 0.0379106 0.75 0.04849 2.718 ||| 0-0 1-1 2-2 3-3 4-4 5-5 ||| 3 4 3
t0 t3 t29 t27 t3 ||| t0 t3 t20 t29 t27 t1 t3 ||| 0.25 0.0575066 0.75 0.000483645 2.718 ||| 0-0 1-1 2-3 3-4 4-6 ||| 12 4 3
t0 t3 t29 t27 ||| t0 t3 t29 t27 ||| 1 0.075877 0.25 0.107789 2.718 ||| 0-0 1-1 2-2 3-3 ||| 3 12 3
t0 t3 t4 t30 ||| t0 t3 t4 t30 ||| 0.6 0.0934254 1 0.116373 2.718 ||| 0-0 1-1 2-2 3-3 ||| 5 3 3
t0 t3 t98 t109 t13 t1 t3 ||| t1 t3 t98 t109 t13 t1 t3 ||| 1 5.05537e-05 1 0.00160154 2.718 ||| 0-0 1-1 2-2 3-3 4-4 5-5 6-6 ||| 2 2 2
t0 t3 t98 t109 t13 t1 ||| t4 t1 t3 t98 t109 t13 t1 ||| 0.666667 6.67031e-05 0.5 0.000101139 2.718 ||| 0-1 1-2 2-3 3-4 4-5 5-6 ||| 3 4 2
t0 t3 t98 t109 t13 ||| t3 t4 t1 t3 t98 t109 t13 ||| 0.666667 0.000102334 0.333333 1.5029e-05 2.718 ||| 0-2 1-3 2-4 3-5 4-6 ||| 3 6 2
t0 t30 t3 t1 ||| t0 t30 t3 t20 t1 ||| 0.285714 0.119415 1 0.00795386 2.718 ||| 0-0 1-1 2-2 3-4 ||| 7 2 2
t0 t30 t3 t20 t1 ||| t124 tco t1 t3 t20 t1 ||| 0.666667 0.00109608 0.25 8.86189e-06 2.718 ||| 0-0 1-2 2-3 3-4 4-5 ||| 3 8 2
t0 t30 t3 t4 t3 t20 ||| t0 t30 t3 t4 t3 t20 ||| 0.666667 0.0374847 0.666667 0.0438471 2.718 ||| 0-0 1-1 2-2 3-3 4-4 5-5 ||| 3 3 2
t0 t30 t3 t4 t3 ||| t0 t30 t3 t4 t3 ||| 0.666667 0.0708063 1 0.0864926 2.718 ||| 0-0 1-1 2-2 3-3 4-4 ||| 3 2 2
t0 t30 t36 t3 t4 t3 ||| t0 t30 t36 t3 t4 t3 ||| 1 0.041151 1 0.0452668 2.718 ||| 0-0 1-1 2-2 3-3 4-4 5-5 ||| 2 2 2
t0 t30 t36 t3 t4 ||| t0 t30 t36 t3 t4 ||| 1 0.0542967 0.666667 0.0609051 2.718 ||| 0-0 1-1 2-2 3-3 4-4 ||| 2 3 2
t0 t344 t29 t23 ||| t0 t344 t29 t23 ||| 0.666667 0.0393187 0.333333 0.0451412 2.718 ||| 0-0 1-1 2-2 3-3 ||| 3 6 2
t0 t344 t29 ||| t0 t344 t29 ||| 0.75 0.0660642 0.333333 0.0739385 2.718 ||| 0-0 1-1 2-2 ||| 4 9 3
t0 t36 t2 t2 t3 ||| t430 t48 t408 t2 t2 t2 t3 ||| 1 0.000274247 0.666667 4.13157e-11 2.718 ||| 0-0 1-3 2-4 3-5 4-6 ||| 2 3 2
t0 t36 t2 t2 ||| t430 t48 t408 t2 t2 t2 ||| 1 0.000361855 0.5 5.5589e-11 2.718 ||| 0-0 1-3 2-4 3-5 ||| 2 4 2
t0 t36 t2 ||| t430 t48 t408 t2 t2 ||| 1 0.000645726 0.333333 1.27731e-10 2.718 ||| 0-0 1-3 2-4 ||| 2 6 2
t0 t36 t3 t20 t1 t36 t3 ||| t0 t36 t3 t20 t1 t36 t3 ||| 0.5 0.0257252 0.666667 0.0235646 2.718 ||| 0-0 1-1 2-2 3-3 4-4 5-5 6-6 ||| 4 3 2
t0 t36 t3 t289 ||| t0 t36 t3 t4 ||| 0.111111 0.00135081 1 0.036212 2.718 ||| 0-0 1-1 2-2 3-3 ||| 18 2 2
t0 t593 t1 t3 t29 ||| t0 t593 t1 t3 t29 ||| 0.75 0.0432366 0.6 0.0536834 2.718 ||| 0-0 1-1 2-2 3-3 4-4 ||| 4 5 3
t0 t593 t1 t3 t4 ||| t0 t593 t1 t3 t4 ||| 0.5 0.034024 0.666667 0.0404755 2.718 ||| 0-0 1-1 2-2 3-3 4-4 ||| 4 3 2
t1 t103 t1200 t4 t3 t26 ||| t1 t103 t43 t3 t26 ||| 0.0363636 1.25586e-05 1 0.0082469 2.718 ||| 0-0 1-1 2-2 3-2 4-3 5-4 ||| 55 2 2
t1 t103 t1200 t4 t3 ||| t1 t103 t43 t3 ||| 0.00913242 1.47812e-05 1 0.00881324 2.718 ||| 0-0 1-1 2-2 3-2 4-3 ||| 219 2 2
t1 t103 t1200 t4 ||| t1 t103 t43 ||| 0.0045977 1.95031e-05 1 0.0118579 2.718 ||| 0-0 1-1 2-2 3-2 ||| 435 2 2
t1 t103 t2 t3 ||| t1 t103 t2 t3 ||| 0.4 0.130475 0.666667 0.0908617 2.718 ||| 0-0 1-1 2-2 3-3 ||| 5 3 2
t1 t103 t228 t2 t3 t26 ||| t1 t103 t228 t2 t3 t26 ||| 1 0.0291727 0.666667 0.0194709 2.718 ||| 0-0 1-1 2-2 3-3 4-4 5-5 ||| 2 3 2
t1 t103 t228 t2 t3 ||| t1 t103 t228 t2 t3 ||| 1 0.0343355 0.285714 0.020808 2.718 ||| 0-0 1-1 2-2 3-3 4-4 ||| 2 7 2
t1 t103 t228 t2 ||| t1 t103 t228 t2 ||| 1 0.045304 0.222222 0.0279965 2.718 ||| 0-0 1-1 2-2 3-3 ||| 2 9 2
t1 t103 t228 t3 t4 t1 ||| t1 t103 t228 t3 t4 t1 ||| 1 0.0203665 0.4 0.0178449 2.718 ||| 0-0 1-1 2-2 3-3 4-4 5-5 ||| 2 5 2
t1 t103 t43 t167 t3 t23 ||| t1 t103 t43 t167 t3 t23 ||| 0.666667 0.0259508 0.666667 0.0229069 2.718 ||| 0-0 1-1 2-2 3-3 4-4 5-5 ||| 3 3 2
t1 t103 t43 t167 t76 t77 ||| t1 t103 t43 t167 t76 t77 ||| 0.428571 0.0121436 1 0.0157123 2.718 ||| 0-0 1-1 2-2 3-3 4-4 5-5 ||| 7 3 3
t1 t103 t43 t167 t76 ||| t1 t103 t43 t167 t76 ||| 0.4 0.0264104 0.8 0.0277527 2.718 ||| 0-0 1-1 2-2 3-3 4-4 ||| 10 5 4
t1 t103 t43 t2 t3 t4 ||| t1 t103 t43 t2 t3 t4 ||| 0.666667 0.0265495 0.666667 0.0182542 2.718 ||| 0-0 1-1 2-2 3-3 4-4 5-5 ||| 3 3 2
t1 t103 t43 t3 t20 t29 ||| t1 t103 t43 t3 t20 t29 ||| 0.666667 0.0318727 0.666667 0.0282021 2.718 ||| 0-0 1-1 2-2 3-3 4-4 5-5 ||| 3 3 2
t1 t103 t43 t3 t29 ||| t1 t103 t43 t3 t29 ||| 0.666667 0.0602055 1 0.0556313 2.718 ||| 0-0 1-1 2-2 3-3 4-4 ||| 3 2 2
t1 t103 t43 t470 ||| t1 t103 t43 t470 ||| 0.666667 0.0280845 0.666667 0.0213038 2.718 ||| 0-0 1-1 2-2 3-3 ||| 3 3 2
t1 t103 ||| t1 t103 t103 ||| 0.666667 0.307209 0.00455581 0.114704 2.718 ||| 0-0 1-1 1-2 ||| 3 439 2
t1 t103 ||| t1 t302 ||| 1 0.217272 0.00455581 0.000514229 2.718 ||| 0-0 1-1 ||| 2 439 2
t1 t105 t3 t26 ||| t36 t3 t26 ||| 0.000460511 0.000111986 0.666667 0.0269401 2.718 ||| 0-0 1-0 2-1 3-2 ||| 4343 3 2
t1 t105 t43 t3 ||| t1 t105 t43 t3 ||| 1 0.0580189 0.666667 0.0526861 2.718 ||| 0-0 1-1 2-2 3-3 ||| 2 3 2
t1 t105 t43 ||| t1 t105 t43 ||| 1 0.076553 0.666667 0.0708874 2.718 ||| 0-0 1-1 2-2 ||| 2 3 2
t1 t11 t11 t3 ||| t1 t11 t11 t3 ||| 1 0.0506939 0.666667 0.0418971 2.718 ||| 0-0 1-1 2-2 3-3 ||| 2 3 2
t1 t11 t11 ||| t1 t11 t11 ||| 1 0.0668881 0.666667 0.0563713 2.718 ||| 0-0 1-1 2-2 ||| 2 3 2
t1 t11 t3 t20 ||| t1 t11 t3 t20 ||| 0.75 0.0837773 0.230769 0.0741977 2.718 ||| 0-0 1-1 2-2 3-3 ||| 4 13 3
t1 t11 t3 t23 t49 t27 ||| t1 t11 t3 t23 t49 t27 ||| 0.666667 0.025168 0.666667 0.0317498 2.718 ||| 0-0 1-1 2-2 3-3 4-4 5-5 ||| 3 3 2
t1 t11 t3 t39 t1 ||| t1 t11 t3 t39 t1 ||| 0.666667 0.041692 0.666667 0.0234898 2.718 ||| 0-0 1-0 1-1 2-2 3-3 4-4 ||| 3 3 2
t1 t11 t3 t4 t3 t36 t3 ||| t1 t11 t3 t4 t3 t36 t3 ||| 1 0.0269402 1 0.0229569 2.718 ||| 0-0 1-1 2-2 3-3 4-4 5-5 6-6 ||| 3 3 3
t1 t11 t3 t4 t3 t36 ||| t1 t11 t3 t4 t3 t36 ||| 1 0.0355462 1 0.0308878 2.718 ||| 0-0 1-1 2-2 3-3 4-4 5-5 ||| 3 3 3
t1 t11 t3 t4 ||| t1 t11 t2 t3 t4 ||| 0.666667 0.0412434 0.0240964 0.0100076 2.718 ||| 0-0 1-1 1-2 2-3 3-4 ||| 3 83 2
t1 t11 t3 t45 t49 ||| t1 t11 t3 t45 t49 ||| 0.333333 0.057338 1 0.0731821 2.718 ||| 0-0 1-1 2-2 3-3 4-4 ||| 6 2 2
t1 t121 t3 t111 ||| t1 t121 t3 t111 ||| 1 0.01231 0.4 0.0262354 2.718 ||| 0-0 1-1 2-2 3-3 ||| 2 5 2
t1 t1288 t26 ||| t1 t167 t26 ||| 0.00284091 0.000111537 0.666667 0.08583 2.718 ||| 0-0 1-1 2-2 ||| 704 3 2
t1 t1288 ||| t1 t167 ||| 0.000874891 0.000131276 0.666667 0.0917242 2.718 ||| 0-0 1-1 ||| 2286 3 2
t1 t142 t288 t103 t1200 t26 ||| t29 t23 t103 t46 t26 ||| 0.00749064 1.29347e-12 1 0.000855843 2.718 ||| 0-0 1-0 2-1 3-2 4-3 5-4 ||| 267 2 2
t1 t142 t58 t105 ||| t1 t2 t142 t173 t58 t105 ||| 1 0.00229274 0.4 2.54485e-06 2.718 ||| 0-0 1-1 1-2 2-3 2-4 3-5 ||| 2 5 2
t1 t142 t58 ||| t1 t2 t142 t173 t58 ||| 1 0.00778958 0.333333 9.14513e-06 2.718 ||| 0-0 1-1 1-2 2-3 2-4 ||| 2 6 2
t1 t149 t90 t20 t1 t3 ||| t1 t149 t90 t20 t1 t3 ||| 1 0.0306188 0.666667 0.0244261 2.718 ||| 0-0 1-1 2-2 3-3 4-4 5-5 ||| 2 3 2
t1 t149 t90 t20 t1 ||| t1 t149 t90 t20 t1 ||| 0.666667 0.0404 0.666667 0.0328646 2.718 ||| 0-0 1-1 2-2 3-3 4-4 ||| 3 3 2
t1 t167 t1 t65 t26 ||| t1 t3 t1 t65 t26 ||| 0.0869565 0.00133996 1 0.0284235 2.718 ||| 0-0 1-1 2-2 3-3 4-4 ||| 23 2 2
t1 t167 t1 t65 ||| t1 t3 t1 t65 ||| 0.0526316 0.0015771 0.666667 0.0303755 2.718 ||| 0-0 1-1 2-2 3-3 ||| 38 3 2
t1 t167 t100 t130 t29 ||| t1 t167 t100 t130 t29 ||| 1 0.0224373 0.666667 0.0186171 2.718 ||| 0-0 1-1 2-2 3-3 4-4 ||| 2 3 2
t1 t167 t154 t1 t3 ||| t1 t167 t154 t1 t3 ||| 0.5 0.0920845 0.666667 0.11674 2.718 ||| 0-0 1-1 2-2 3-3 4-4 ||| 4 3 2
t1 t167 t154 t1 ||| t1 t167 t154 t1 ||| 0.4 0.121501 1 0.15707 2.718 ||| 0-0 1-1 2-2 3-3 ||| 5 2 2
t1 t167 t163 t1 ||| t1 t167 t163 t1 ||| 1 0.0729796 1 0.0676657 2.718 ||| 0-0 1-1 2-2 3-3 ||| 2 2 2
t1 t167 t17 ||| t1 t167 t17 ||| 0.666667 0.15985 0.307692 0.181584 2.718 ||| 0-0 1-1 2-2 ||| 6 13 4
t1 t167 t278 t759 t29 tco t30 ||| t750 ||| 0.0208333 7.12408e-13 1 0.011236 2.718 ||| 3-0 ||| 96 2 2
t1 t167 t278 t759 t29 tco ||| t750 ||| 0.0208333 4.46788e-11 1 0.011236 2.718 ||| 3-0 ||| 96 2 2
t1 t167 t278 t759 t29 ||| t750 ||| 0.0208333 9.93633e-10 1 0.011236 2.718 ||| 3-0 ||| 96 2 2
t1 t167 t278 t759 ||| t750 ||| 0.0208333 1.72962e-08 1 0.011236 2.718 ||| 3-0 ||| 96 2 2
t1 t167 t29 t1501 t26 ||| t154 t29 t262 t26 ||| 0.0235294 6.95133e-08 0.666667 2.65432e-05 2.718 ||| 0-0 1-1 2-1 3-2 4-3 ||| 85 3 2
t1 t167 t3 t1501 ||| t154 t29 t262 ||| 0.0123457 6.15802e-08 1 4.14571e-06 2.718 ||| 0-0 2-1 3-2 ||| 162 2 2
t1 t167 t31 t328 t1 ||| t1 t167 t31 t328 t1 ||| 0.285714 0.031658 0.666667 0.0372564 2.718 ||| 0-0 1-1 2-2 3-3 4-4 ||| 7 3 2
t1 t167 t321 ||| t1 t167 t232 ||| 0.666667 0.00758477 0.125 0.000867178 2.718 ||| 0-0 1-1 2-2 ||| 3 16 2
t1 t167 t4 t1 t3 t29 ||| t1 t167 t4 t1 t3 t29 ||| 0.666667 0.0499426 0.666667 0.0666425 2.718 ||| 0-0 1-1 2-2 3-3 4-4 5-5 ||| 3 3 2
t1 t167 t4 t1 t3 t4 t1 ||| t1 t167 t4 t1 t3 t4 t1 ||| 0.25 0.0256172 0.666667 0.0345659 2.718 ||| 0-0 1-1 2-2 3-3 4-4 5-5 6-6 ||| 8 3 2
t1 t167 t4 t1 t3 t4 t2 ||| t1 t167 t4 t1 t3 t4 t2 ||| 1 0.0220238 1 0.0218673 2.718 ||| 0-0 1-1 2-2 3-3 4-4 5-5 6-6 ||| 2 2 2
t1 t167 t4 t1 t3 t76 ||| t1 t167 t4 t1 t3 t26 ||| 0.0333333 0.000962267 0.666667 0.0133166 2.718 ||| 0-0 1-1 2-2 3-3 4-4 5-5 ||| 60 3 2
t1 t167 t4 t1 t3 ||| t1 t167 t13 t30 t3 ||| 0.666667 0.00239619 0.0151515 0.000382802 2.718 ||| 0-0 1-1 2-2 3-3 4-4 ||| 3 132 2
t1 t167 t4 t1 t36 t3 t21 ||| t1 t167 t4 t1 t36 t3 t21 ||| 0.4 0.0188867 1 0.0188963 2.718 ||| 0-0 1-1 2-2 3-3 4-4 5-5 6-6 ||| 5 2 2
t1 t167 t4 t1 t36 t36 t3 ||| t1 t167 t4 t1 t36 t36 t3 ||| 1 0.0260309 0.5 0.0253673 2.718 ||| 0-0 1-1 2-2 3-3 4-4 5-5 6-6 ||| 2 4 2
t1 t167 t4 t1 t36 t36 ||| t1 t167 t4 t1 t36 t36 ||| 0.666667 0.0343465 0.333333 0.0341309 2.718 ||| 0-0 1-1 2-2 3-3 4-4 5-5 ||| 3 6 2
t1 t167 t4 t1 ||| t1 t167 t13 t30 ||| 0.666667 0.00316165 0.0107527 0.000515048 2.718 ||| 0-0 1-1 2-2 3-3 ||| 3 186 2
t1 t167 t4 t29 t4 ||| t1 t167 t4 t29 t4 ||| 0.666667 0.0515551 1 0.0707148 2.718 ||| 0-0 1-1 2-2 3-3 4-4 ||| 3 2 2
t1 t167 t4 t3 t21 t38 t26 ||| t1 t167 t4 t3 t21 t38 t26 ||| 1 0.0175224 0.5 0.017374 2.718 ||| 0-0 1-1 2-2 3-3 4-4 5-5 6-6 ||| 2 4 2
t1 t167 t4 t3 t21 t38 ||| t1 t167 t4 t3 t21 t38 ||| 1 0.0206234 0.4 0.0185671 2.718 ||| 0-0 1-1 2-2 3-3 4-4 5-5 ||| 2 5 2
t1 t167 t60 t3 ||| t1 t167 t60 t3 ||| 0.428571 0.0658572 0.75 0.069737 2.718 ||| 0-0 1-1 2-2 3-3 ||| 7 4 3
t1 t167 t76 t77 t3 t28 tco ||| t1 t167 t76 t275 t76 t29 t28 ||| 0.5 2.65532e-05 1 8.70303e-06 2.718 ||| 0-0 1-1 2-2 3-3 3-4 4-5 5-6 ||| 4 2 2
t1 t167 t76 t77 t3 t28 ||| t1 t167 t76 t275 t76 t29 t28 ||| 0.5 0.00059053 1 8.70303e-06 2.718 ||| 0-0 1-1 2-2 3-3 3-4 4-5 5-6 ||| 4 2 2
t1 t167 t76 t77 t3 ||| t1 t167 t76 t275 t76 t29 ||| 1 0.0011939 0.285714 1.65507e-05 2.718 ||| 0-0 1-1 2-2 3-3 3-4 4-5 ||| 2 7 2
t1 t167 t76 t77 ||| t1 t167 t76 t275 t76 ||| 1 0.0129461 0.0833333 0.000311327 2.718 ||| 0-0 1-1 2-2 3-3 3-4 ||| 2 24 2
t1 t167 t98 t130 t3 ||| t1 t167 t98 t130 t29 ||| 0.666667 0.00498978 1 0.00285245 2.718 ||| 0-0 1-1 2-2 3-3 4-4 ||| 3 2 2
t1 t167 t98 t431 tco t1 ||| t1 t167 t98 t99 t1 ||| 0.333333 0.000106254 1 0.0196304 2.718 ||| 0-0 1-1 2-2 3-3 4-3 5-4 ||| 6 2 2
t1 t167 t98 t431 tco ||| t1 t167 t98 t99 ||| 0.133333 0.000163011 1 0.0285354 2.718 ||| 0-0 1-1 2-2 3-3 4-3 ||| 15 2 2
t1 t167 ||| t1 t121 t167 ||| 0.666667 0.155466 0.000963855 6.95439e-05 2.718 ||| 0-0 1-1 1-2 ||| 3 2075 2
t1 t173 t36 ||| t1 ||| 3.40084e-05 1.71343e-05 0.666667 0.687931 2.718 ||| 0-0 ||| 58809 3 2
t1 t186 t103 t43 t167 t4 ||| t103 t43 t167 t31 t1172 ||| 0.666667 4.27422e-06 1 7.17722e-07 2.718 ||| 0-0 1-0 2-0 3-1 4-2 5-4 ||| 3 2 2
t1 t186 t103 t43 ||| t103 t43 ||| 0.00307692 5.88453e-05 1 0.0663528 2.718 ||| 0-0 1-0 2-0 3-1 ||| 650 2 2
t1 t186 t43 t3 ||| t36 t3 ||| 0.000118287 4.65462e-08 0.666667 0.0778626 2.718 ||| 0-0 1-0 2-0 3-1 ||| 16908 3 2
t1 t188 t4 ||| t1 t3 t4 ||| 0.000325839 0.000166232 0.666667 0.104247 2.718 ||| 0-0 1-1 2-2 ||| 6138 3 2
t1 t1920 t4 t1 t3 ||| t1 t465 t4 t1 t3 ||| 0.181818 0.00135151 1 0.00930881 2.718 ||| 0-0 1-1 2-2 3-3 4-4 ||| 11 2 2
t1 t1920 t4 t1 ||| t1 t465 t4 t1 ||| 0.181818 0.00178325 0.666667 0.0125247 2.718 ||| 0-0 1-1 2-2 3-3 ||| 11 3 2
t1 t199 t29 t3043 tco ||| t1 t199 t29 t3043 tco ||| 1 0.00924634 0.4 0.00792372 2.718 ||| 0-0 1-1 2-2 3-3 4-4 ||| 2 5 2
t1 t199 t29 t3043 ||| t1 t199 t29 t3043 ||| 1 0.0200667 0.5 0.0180045 2.718 ||| 0-0 1-1 2-2 3-3 ||| 2 4 2
t1 t199 t29 t853 t1 t3 ||| t1 t199 t29 t853 t1 t3 ||| 1 0.0116439 1 0.0104186 2.718 ||| 0-0 1-1 2-2 3-3 4-4 5-5 ||| 2 2 2
t1 t199 t29 t853 t1 ||| t1 t199 t29 t853 t1 ||| 0.666667 0.0153636 0.666667 0.0140179 2.718 ||| 0-0 1-1 2-2 3-3 4-4 ||| 3 3 2
t1 t199 t29 t853 ||| t1 t199 t29 t853 ||| 0.833333 0.0235704 0.454545 0.0203768 2.718 ||| 0-0 1-1 2-2 3-3 ||| 6 11 5
t1 t199 t74 t30 ||| t1 t199 t74 t30 ||| 1 0.0659806 0.4 0.0691901 2.718 ||| 0-0 1-1 2-2 3-3 ||| 2 5 2
t1 t2 t167 t484 ||| t1 t2 t167 t26 ||| 0.0185185 0.0038215 1 0.0312988 2.718 ||| 0-0 1-1 2-2 3-3 ||| 108 2 2
t1 t2 t167 t98 ||| t1 t36 t167 t98 ||| 0.0625 0.0210427 0.666667 0.0247085 2.718 ||| 0-0 1-1 2-2 3-3 ||| 32 3 2
t1 t2 t187 ||| t1 t3 t187 ||| 0.0243902 0.00522428 1 0.0228011 2.718 ||| 0-0 1-1 2-2 ||| 82 2 2
t1 t2 t2 t2 t3 t23 ||| t1 t3 t5 t3 t111 t23 ||| 1 1.1414e-05 0.25 1.43202e-07 2.718 ||| 0-0 1-1 2-2 3-2 4-3 5-5 ||| 2 8 2
t1 t2 t2 t2 t3 t74 ||| t1 t7 t8 t3 t74 ||| 0.333333 0.000752011 1 4.50083e-05 2.718 ||| 0-0 1-1 2-2 3-2 4-3 5-4 ||| 6 2 2
t1 t2 t2 t2 t3 ||| t1 t3 t5 t3 t111 ||| 1 1.9178e-05 0.0235294 2.34556e-07 2.718 ||| 0-0 1-1 2-2 3-2 4-3 ||| 2 85 2
t1 t2 t2 t2 t36 t430 ||| t1 t2 t2 t2 t36 t430 ||| 1 0.0246297 0.75 0.0135719 2.718 ||| 0-0 1-1 2-2 3-3 4-4 5-5 ||| 3 4 3
t1 t2 t2 t2 t36 ||| t1 t2 t2 t2 t36 ||| 0.625 0.0666643 0.555556 0.0296773 2.718 ||| 0-0 1-1 2-2 3-3 4-4 ||| 8 9 5
t1 t2 t2 t3 t187 ||| t1 t2 t2 t3 t187 ||| 0.375 0.0591672 1 0.0340812 2.718 ||| 0-0 1-1 2-2 3-3 4-4 ||| 8 3 3
t1 t2 t2 t3 t96 t97 t1 ||| t2 t3 t96 t97 t1 ||| 0.0952381 0.00209895 0.666667 0.0204983 2.718 ||| 0-0 1-0 2-0 3-1 4-2 5-3 6-4 ||| 21 3 2
t1 t2 t3 t141 t1 t3 t26 ||| t1 t36 t3 t141 t1 t3 t26 ||| 1 0.00447998 1 0.00359614 2.718 ||| 0-0 1-1 2-2 3-3 4-4 5-5 6-6 ||| 2 2 2
t1 t2 t3 t154 t1914 t1 ||| t1 t2 t3 t154 t1914 t1 ||| 1 0.0197345 0.666667 0.0162845 2.718 ||| 0-0 1-1 2-2 3-3 4-4 5-5 ||| 2 3 2
t1 t2 t3 t154 t1914 ||| t1 t2 t3 t154 t1914 ||| 1 0.0302761 0.666667 0.0236717 2.718 ||| 0-0 1-1 2-2 3-3 4-4 ||| 2 3 2
t1 t2 t3 t163 t69 ||| t1 t2 t3 t163 t69 ||| 0.666667 0.0358968 0.4 0.0224199 2.718 ||| 0-0 1-1 2-2 3-3 4-4 ||| 3 5 2
t1 t2 t3 t20 t68 ||| t1 t2 t3 t20 t68 ||| 0.666667 0.0441026 1 0.0321229 2.718 ||| 0-0 1-1 2-2 3-3 4-4 ||| 3 2 2
t1 t2 t3 t2031 tco ||| t1 t3 t2031 tco ||| 0.117647 0.00313307 0.666667 0.0486391 2.718 ||| 0-0 1-0 2-1 3-2 4-3 ||| 17 3 2
t1 t2 t3 t21 t38 t21 ||| t1 t2 t3 t21 t38 t21 ||| 0.666667 0.0203613 1 0.0119642 2.718 ||| 0-0 1-1 2-2 3-3 4-4 5-5 ||| 3 2 2
t1 t2 t3 t23 t49 t24 ||| t1 t2 t3 t23 t49 t24 ||| 0.5 0.0480305 1 0.0428655 2.718 ||| 0-0 1-1 2-2 3-3 4-4 5-5 ||| 4 2 2
t1 t2 t3 t23 t50 ||| t20 t1 t2 t3 t23 t50 ||| 0.666667 0.0543999 0.0740741 0.00146019 2.718 ||| 0-1 1-1 1-2 2-3 3-4 4-5 ||| 3 27 2
t1 t2 t3 t278 t97 t1 t3 ||| t1 t2 t3 t278 t97 t1 t3 ||| 0.5 0.0131085 1 0.00822718 2.718 ||| 0-0 1-1 2-2 3-3 4-4 5-5 6-6 ||| 4 2 2
t1 t2 t3 t283 t254 t1 ||| t1 t2 t3 t283 t254 t1 ||| 0.25 0.00854281 0.666667 0.0109938 2.718 ||| 0-0 1-1 2-2 3-3 4-4 5-5 ||| 8 3 2
t1 t2 t3 t283 t254 ||| t1 t2 t3 t283 t254 ||| 0.272727 0.0131061 0.75 0.0159809 2.718 ||| 0-0 1-1 2-2 3-3 4-4 ||| 11 4 3
t1 t2 t3 t3 t26 ||| t1 t2 t3 t26 ||| 0.00186741 0.178262 1 0.208219 2.718 ||| 0-0 1-1 2-2 3-2 4-3 ||| 1071 2 2
t1 t2 t3 t36 t65 ||| t1 t3 t36 t65 ||| 0.153846 0.00471705 1 0.05392 2.718 ||| 0-0 1-0 2-1 3-2 4-3 ||| 13 2 2
t1 t2 t3 t39 t30 ||| t1 t2 t3 t39 t30 ||| 0.75 0.0703892 0.5 0.0558386 2.718 ||| 0-0 1-1 2-2 3-3 4-4 ||| 4 6 3
t1 t2 t3 t4 t1 t73 ||| t1 t2 t3 t4 t1 t3 ||| 0.0227273 0.000292566 0.666667 0.0199119 2.718 ||| 0-0 1-1 2-2 3-3 4-4 5-5 ||| 88 3 2
t1 t2 t3 t4 t3 t27 ||| t1 t2 t3 t4 t3 t27 ||| 0.666667 0.0430174 0.666667 0.0404942 2.718 ||| 0-0 1-1 2-2 3-3 4-4 5-5 ||| 3 3 2
t1 t2 t3 t45 t23 t50 t13 ||| t1 t2 t3 t45 t23 t50 t13 ||| 0.666667 0.0118051 0.666667 0.0122127 2.718 ||| 0-0 1-1 2-2 3-3 4-4 5-5 6-6 ||| 3 3 2
t1 t2 t3 t45 t23 t50 ||| t1 t2 t3 t28 t31 t23 t324 ||| 1 0.000459434 0.222222 1.83445e-06 2.718 ||| 0-0 1-1 2-2 3-3 3-4 4-5 5-6 ||| 2 9 2
t1 t2 t3 t45 t23 ||| t1 t2 t3 t28 t31 t23 ||| 0.666667 0.00617938 0.0666667 0.000194085 2.718 ||| 0-0 1-1 2-2 3-3 3-4 4-5 ||| 3 30 2
t1 t2 t3 t45 t28 t74 ||| t1 t2 t3 t45 t28 t74 ||| 0.666667 0.0421393 0.5 0.0407668 2.718 ||| 0-0 1-1 2-2 3-3 4-4 5-5 ||| 3 4 2
t1 t2 t3 t45 t49 t23 ||| t1 t2 t3 t45 t49 t23 ||| 0.333333 0.0596967 0.666667 0.0679272 2.718 ||| 0-0 1-1 2-2 3-3 4-4 5-5 ||| 6 3 2
t1 t2 t3 t57 tco t1 t3 ||| t1 t2 t3 t57 tco t1 t3 ||| 1 0.0171438 1 0.0164866 2.718 ||| 0-0 1-1 2-2 3-3 4-4 5-5 6-6 ||| 2 2 2
t1 t2 t3 t584 ||| t1 t2 t3 t584 ||| 0.333333 0.0363669 0.75 0.0411448 2.718 ||| 0-0 1-1 2-2 3-3 ||| 9 4 3
t1 t2 t3 t65 t26 ||| t68 t3 t65 t26 ||| 0.666667 0.000150321 0.333333 0.00120391 2.718 ||| 0-0 1-0 2-1 3-2 4-3 ||| 3 6 2
t1 t2 t3 t65 ||| t68 t3 t65 ||| 0.666667 0.000176924 0.25 0.00128659 2.718 ||| 0-0 1-0 2-1 3-2 ||| 3 8 2
t1 t2 t3 t69 t74 ||| t1 t2 t3 t74 ||| 0.08 0.000855787 1 0.0662626 2.718 ||| 0-0 1-1 2-2 3-2 4-3 ||| 25 2 2
t1 t2 t3 t71 t69 t82 ||| t1 t2 t3 t13 ||| 0.0183486 2.38839e-07 1 0.010423 2.718 ||| 0-0 1-1 2-2 3-2 4-3 5-3 ||| 109 2 2
t1 t2 t3 t76 t77 t29 t23 ||| t1 t2 t3 t76 t77 t29 t23 ||| 0.4 0.0225366 0.666667 0.0304263 2.718 ||| 0-0 1-1 2-2 3-3 4-4 5-5 6-6 ||| 5 3 2
t1 t2 t3 t81 ||| t1 t2 t3 t332 ||| 0.666667 0.0156819 0.0294118 0.000646236 2.718 ||| 0-0 1-1 2-2 3-3 ||| 3 68 2
t1 t2 t3 t98 t99 ||| t1 t2 t3 t98 t99 ||| 0.4 0.0600062 1 0.0507414 2.718 ||| 0-0 1-1 2-2 3-3 4-4 ||| 5 2 2
t1 t2 t3 ||| t21 t1 t36 t2 t3 ||| 0.666667 0.165999 0.000477099 0.000511835 2.718 ||| 0-1 1-2 1-3 2-4 ||| 3 4192 2
t1 t2 t36 t2 t2 t2 t2 ||| t1 t2 t36 t2 t2 t38 t48 ||| 1 9.52637e-05 1 4.04725e-07 2.718 ||| 0-0 1-1 2-2 3-3 4-4 5-5 6-6 ||| 2 2 2
t1 t2 t36 t2 t2 ||| t1 t2 t36 t2 t2 ||| 0.714286 0.0666643 0.714286 0.0296773 2.718 ||| 0-0 1-1 2-2 3-3 4-4 ||| 7 7 5
t1 t2 t36 t38 t26 ||| t1 t36 t3 t26 ||| 0.000854701 0.000303762 1 0.047728 2.718 ||| 0-0 1-1 2-1 3-2 4-3 ||| 2340 2 2
t1 t2 t36 t38 ||| t1 t36 t3 ||| 0.000217936 0.00035752 0.666667 0.0510056 2.718 ||| 0-0 1-1 2-1 3-2 ||| 9177 3 2
t1 t2 t791 t2 t3 t4 t1 ||| t1 t2 t791 t2 t3 t4 t1 ||| 1 0.0343774 1 0.0180719 2.718 ||| 0-0 1-1 2-2 3-3 4-4 5-5 6-6 ||| 2 2 2
t1 t2 t791 t2 t3 t4 ||| t1 t2 t791 t2 t3 t4 ||| 1 0.0527409 1 0.0262699 2.718 ||| 0-0 1-1 2-2 3-3 4-4 5-5 ||| 2 2 2
t1 t2 t791 t2 t3 ||| t1 t2 t791 t2 t3 ||| 1 0.103422 1 0.0484202 2.718 ||| 0-0 1-1 2-2 3-3 4-4 ||| 2 2 2
t1 t2 t791 t2 ||| t1 t2 t791 t2 ||| 1 0.136461 1 0.0651479 2.718 ||| 0-0 1-1 2-2 3-3 ||| 2 2 2
t1 t2 t791 ||| t1 t2 t791 ||| 1 0.243512 1 0.149695 2.718 ||| 0-0 1-1 2-2 ||| 2 2 2
t1 t2 ||| t3170 t173 ||| 0.666667 0.0182846 0.000375094 6.10202e-08 2.718 ||| 0-0 1-1 ||| 3 5332 2
t1 t207 t20 t68 t1 t3 t26 ||| t1 t207 t20 t68 t1 t3 t26 ||| 0.666667 0.00912774 0.666667 0.00824988 2.718 ||| 0-0 1-1 2-2 3-3 4-4 5-5 6-6 ||| 3 3 2
t1 t207 t20 t68 t1 t3 ||| t1 t207 t20 t68 t1 t3 ||| 0.666667 0.0107431 0.666667 0.00881642 2.718 ||| 0-0 1-1 2-2 3-3 4-4 5-5 ||| 3 3 2
t1 t207 t20 t68 t1 ||| t1 t207 t20 t68 t1 ||| 0.5 0.014175 0.666667 0.0118622 2.718 ||| 0-0 1-1 2-2 3-3 4-4 ||| 4 3 2
t1 t207 t21 t1 ||| t1 t207 t408 t1 ||| 0.166667 0.00803399 1 0.00218079 2.718 ||| 0-0 1-1 2-2 3-3 ||| 12 2 2
t1 t207 t21 ||| t1 t207 t408 ||| 0.038961 0.0123255 0.75 0.00317007 2.718 ||| 0-0 1-1 2-2 ||| 77 4 3
t1 t229 ||| t1 t229 ||| 0.666667 0.0343062 0.4 0.0317507 2.718 ||| 0-0 1-1 ||| 3 5 2
t1 t237 t321 t26 ||| t1 t237 t26 ||| 0.0234375 0.00158833 0.75 0.0735874 2.718 ||| 0-0 1-1 2-1 3-2 ||| 128 4 3
t1 t237 t321 ||| t1 t237 ||| 0.0123457 0.00186942 0.75 0.0786409 2.718 ||| 0-0 1-1 2-1 ||| 243 4 3
t1 t2464 t26 ||| t1 t2464 t26 ||| 0.666667 0.207678 1 0.321862 2.718 ||| 0-0 1-1 2-2 ||| 3 2 2
t1 t2464 ||| t1 t2464 ||| 0.4 0.244431 1 0.343966 2.718 ||| 0-0 1-1 ||| 5 2 2
t1 t2492 t26 ||| t1 t167 t26 ||| 0.00284091 0.000167305 1 0.148552 2.718 ||| 0-0 1-1 2-2 ||| 704 2 2
t1 t2492 ||| t1 t167 ||| 0.000874891 0.000196914 1 0.158753 2.718 ||| 0-0 1-1 ||| 2286 2 2
t1 t27 t36 t2 t3 t4 t1 ||| t1 t27 t36 t2 t3 t4 t1 ||| 1 0.0215016 1 0.0196161 2.718 ||| 0-0 1-1 2-2 3-3 4-4 5-5 6-6 ||| 3 3 3
t1 t27 t36 t2 t3 t4 ||| t1 t27 t36 t2 t3 t4 ||| 1 0.0329872 1 0.0285146 2.718 ||| 0-0 1-1 2-2 3-3 4-4 5-5 ||| 3 3 3
t1 t27 t36 t2 t3 ||| t1 t27 t36 t2 t3 ||| 1 0.0646863 1 0.0525578 2.718 ||| 0-0 1-1 2-2 3-3 4-4 ||| 3 3 3
t1 t27 t36 t2 ||| t1 t27 t36 t2 ||| 1 0.0853504 1 0.0707148 2.718 ||| 0-0 1-1 2-2 3-3 ||| 3 3 3
t1 t27 t36 ||| t1 t27 t36 ||| 1 0.152307 1 0.162487 2.718 ||| 0-0 1-1 2-2 ||| 3 3 3
t1 t27 ||| t1 t27 ||| 0.75 0.262066 0.3 0.310468 2.718 ||| 0-0 1-1 ||| 4 10 3
t1 t28 ||| t1 ||| 3.40084e-05 0.0109278 0.666667 0.687931 2.718 ||| 0-0 ||| 58809 3 2
t1 t29 t3 ||| t1 t3 ||| 5.45613e-05 0.0283796 0.666667 0.279298 2.718 ||| 0-0 1-1 2-1 ||| 36656 3 2
t1 t29 t39 ||| t29 t39 ||| 0.0129032 0.00455541 0.666667 0.14401 2.718 ||| 0-0 1-0 2-1 ||| 155 3 2
t1 t29 t87 t81 ||| t113 t29 t87 t28 ||| 0.25 0.000427587 1 6.18434e-05 2.718 ||| 0-0 1-0 1-1 2-2 3-3 ||| 8 2 2
t1 t3 t1 t2 t2 t3 ||| t1 t3 t1 t2 t2 t3 ||| 1 0.076637 0.666667 0.0495141 2.718 ||| 0-0 1-1 2-2 3-3 4-4 5-5 ||| 2 3 2
t1 t3 t1 t2 t2 ||| t1 t3 t1 t2 t2 ||| 1 0.101119 0.666667 0.0666196 2.718 ||| 0-0 1-1 2-2 3-3 4-4 ||| 2 3 2
t1 t3 t1 t3 t45 ||| t1 t3 t20 t1 t3 t45 ||| 0.111111 0.133038 0.666667 0.00894938 2.718 ||| 0-0 1-1 2-3 3-4 4-5 ||| 18 3 2
t1 t3 t1 t36 t149 t69 t26 ||| t1 t3 t1 t36 t149 t69 t26 ||| 0.333333 0.0253746 1 0.0227727 2.718 ||| 0-0 1-1 2-2 3-3 4-4 5-5 6-6 ||| 6 2 2
t1 t3 t1 t36 t149 t69 ||| t1 t3 t1 t36 t149 t69 ||| 0.333333 0.0298653 1 0.0243366 2.718 ||| 0-0 1-1 2-2 3-3 4-4 5-5 ||| 9 3 3
t1 t3 t1 t36 t149 ||| t1 t3 t1 t36 t149 ||| 0.428571 0.0842945 1 0.0711612 2.718 ||| 0-0 1-1 2-2 3-3 4-4 ||| 7 3 3
t1 t3 t10 t26 ||| t1 t3 t26 t1869 ||| 0.0140845 0.00474358 0.666667 0.0099247 2.718 ||| 0-0 1-1 3-2 2-3 ||| 142 3 2
t1 t3 t100 t99 t29 tco ||| t1 t3 t98 t99 t29 ||| 0.0689655 0.000202408 1 0.0135512 2.718 ||| 0-0 1-1 2-2 3-3 4-4 ||| 29 2 2
t1 t3 t100 t99 t36 t3 ||| t1 t3 t100 t99 t36 t3 ||| 0.666667 0.0301818 0.5 0.0218682 2.718 ||| 0-0 1-1 2-2 3-3 4-4 5-5 ||| 3 4 2
t1 t3 t103 t187 t26 ||| t1 t3 t26 ||| 0.000239636 5.1701e-08 0.666667 0.123822 2.718 ||| 0-0 1-1 2-1 3-2 4-2 ||| 8346 3 2
t1 t3 t112 t36 ||| t1 t3 t27 t36 ||| 0.0606061 0.00196228 0.666667 0.0531698 2.718 ||| 0-0 1-1 2-2 3-3 ||| 33 3 2
t1 t3 t1124 t31 ||| t29 t1124 t31 ||| 0.0277778 0.000330515 0.666667 0.00751804 2.718 ||| 0-0 1-0 2-1 3-2 ||| 72 3 2
t1 t3 t115 t146 t31 ||| t1 t3 t115 t146 t31 ||| 1 0.0208543 0.666667 0.0135052 2.718 ||| 0-0 1-1 2-2 3-3 4-4 ||| 2 3 2
t1 t3 t115 t146 ||| t1 t3 t115 t146 ||| 1 0.0360084 0.666667 0.0237396 2.718 ||| 0-0 1-1 2-2 3-3 ||| 2 3 2
t1 t3 t115 t68 t29 ||| t1 t3 t115 t68 t29 ||| 0.5 0.0229709 0.666667 0.0197073 2.718 ||| 0-0 1-1 2-2 3-3 4-4 ||| 4 3 2
t1 t3 t13 t1 t103 t43 t3 ||| t1 t3 t13 t1 t36 t3 ||| 0.0333333 9.16792e-06 0.666667 0.0152577 2.718 ||| 0-0 1-1 2-2 3-3 4-4 5-4 6-5 ||| 60 3 2
t1 t3 t13 t1 t103 t43 ||| t1 t3 t13 t1 t36 ||| 0.0266667 1.20966e-05 0.666667 0.0205287 2.718 ||| 0-0 1-1 2-2 3-3 4-4 5-4 ||| 75 3 2
t1 t3 t13 t1 t3 t51 tco ||| t1 t3 t163 t13 t1 t3 t4 ||| 0.222222 6.03609e-06 1 6.14362e-05 2.718 ||| 0-0 1-1 2-2 2-3 3-4 4-5 5-6 6-6 ||| 9 2 2
t1 t3 t13 t1 t36 ||| t1 t3 t76 t77 t0 t1 t36 ||| 1 0.00433177 0.0357143 3.25019e-09 2.718 ||| 0-0 1-1 1-2 2-3 2-4 3-5 4-6 ||| 2 56 2
t1 t3 t13 t2 t3 t4 t1 ||| t1 t3 t13 t2 t3 t4 t1 ||| 1 0.0277618 1 0.0252568 2.718 ||| 0-0 1-1 2-2 3-3 4-4 5-5 6-6 ||| 3 3 3
t1 t3 t13 t2 t3 t4 ||| t1 t3 t13 t2 t3 t4 ||| 1 0.0425913 0.5 0.0367141 2.718 ||| 0-0 1-1 2-2 3-3 4-4 5-5 ||| 3 6 3
t1 t3 t13 t3 t4 t1 ||| t1 t3 t13 t1 ||| 0.00516796 0.00863349 1 0.0815715 2.718 ||| 0-0 1-1 3-1 2-2 4-2 5-3 ||| 387 2 2
t1 t3 t13 t7 t8 t3 t26 ||| t1 t3 t13 t7 t8 t3 t26 ||| 0.666667 0.0189487 1 0.0205788 2.718 ||| 0-0 1-1 2-2 3-3 4-4 5-5 6-6 ||| 3 2 2
t1 t3 t13 t7 t8 t3 ||| t1 t3 t13 t7 t8 t3 ||| 0.333333 0.0223021 0.666667 0.021992 2.718 ||| 0-0 1-1 2-2 3-3 4-4 5-5 ||| 6 3 2
t1 t3 t13 t7 t8 ||| t1 t3 t13 t7 t8 ||| 0.222222 0.0294266 0.666667 0.0295896 2.718 ||| 0-0 1-1 2-2 3-3 4-4 ||| 9 3 2
t1 t3 t13 t824 t26 ||| t1 t3 t26 ||| 0.000239636 4.92867e-06 0.666667 0.218766 2.718 ||| 0-0 1-1 2-2 3-2 4-2 ||| 8346 3 2
t1 t3 t13 ||| t1 t3 t1238 ||| 0.666667 0.164669 0.00255754 0.000107781 2.718 ||| 0-0 1-1 2-2 ||| 3 782 2
t1 t3 t134 t106 t26 ||| t1 t3 t26 ||| 0.000239636 6.97966e-08 1 0.188859 2.718 ||| 0-0 1-1 2-2 3-2 4-2 ||| 8346 2 2
t1 t3 t134 t72 ||| t1 t3 ||| 5.45613e-05 8.16996e-08 1 0.511295 2.718 ||| 0-0 1-1 ||| 36656 2 2
t1 t3 t141 t3 t26 ||| t1 t3 t141 t1 t3 t26 ||| 0.666667 0.0307888 0.4 0.000431841 2.718 ||| 0-0 1-1 2-2 2-3 3-4 4-5 ||| 3 5 2
t1 t3 t143 t18 t17 t18 t4 ||| t1 t3 t143 t18 t17 t18 t4 ||| 0.571429 0.00792964 0.666667 0.0105301 2.718 ||| 0-0 1-1 2-2 3-3 4-4 5-5 6-6 ||| 7 6 4
t1 t3 t154 t3 t45 ||| t1 t3 t154 t3 t45 ||| 0.666667 0.124365 0.5 0.16505 2.718 ||| 0-0 1-1 2-2 3-3 4-4 ||| 3 4 2
t1 t3 t163 t59 t1 t36 t3 ||| t1 t3 t96 t97 t36 t3 ||| 0.25 7.58027e-05 1 0.000266221 2.718 ||| 0-0 1-1 2-2 3-3 4-4 5-4 6-5 ||| 8 2 2
t1 t3 t163 t59 t1 t36 ||| t1 t3 t96 t97 t36 ||| 0.222222 0.000100018 0.666667 0.000358191 2.718 ||| 0-0 1-1 2-2 3-3 4-4 5-4 ||| 9 3 2
t1 t3 t163 t65 t26 ||| t1 t3 t26 ||| 0.000599089 5.18854e-06 0.714286 0.18255 2.718 ||| 0-0 1-1 2-2 3-2 4-2 ||| 8346 7 5
t1 t3 t168 tco t30 t3 t26 ||| t1 t3 t27 t30 t3 t26 ||| 0.142857 7.76168e-05 1 0.047747 2.718 ||| 0-0 1-1 2-2 3-2 4-3 5-4 6-5 ||| 14 2 2
t1 t3 t17 t18 t20 ||| t1 t3 t17 t18 t20 ||| 0.666667 0.0579001 0.4 0.0653567 2.718 ||| 0-0 1-1 2-2 3-3 4-4 ||| 3 5 2
t1 t3 t17 t18 t4 t1 t3 ||| t1 t3 t17 t18 t4 t1 t3 ||| 0.25 0.0275526 0.833333 0.0357628 2.718 ||| 0-0 1-1 2-2 3-3 4-4 5-5 6-6 ||| 20 6 5
t1 t3 t17 t18 t4 t1 ||| t1 t3 t17 t18 t4 t1 ||| 0.266667 0.0363543 0.727273 0.0481177 2.718 ||| 0-0 1-1 2-2 3-3 4-4 5-5 ||| 30 11 8
t1 t3 t17 t18 t4 t30 t3 ||| t1 t3 t17 t18 t4 t30 t3 ||| 0.333333 0.0265914 0.666667 0.0335957 2.718 ||| 0-0 1-1 2-2 3-3 4-4 5-5 6-6 ||| 6 3 2
t1 t3 t17 t18 t4 ||| t68 t3 t17 t18 t4 ||| 1 0.00227118 0.0384615 0.000334653 2.718 ||| 0-0 1-1 2-2 3-3 4-4 ||| 2 52 2
t1 t3 t180 t3 ||| t1 t3 t21 t180 t1 t3 ||| 0.5 0.072129 1 6.35458e-05 2.718 ||| 0-0 1-1 2-2 2-3 3-4 3-5 ||| 4 2 2
t1 t3 t187 t2 t36 t48 t3024 ||| t1 t3 t187 t2 t36 t48 t28 ||| 0.5 9.63345e-06 0.666667 0.00095482 2.718 ||| 0-0 1-1 2-2 3-3 4-4 5-5 6-6 ||| 4 3 2
t1 t3 t187 t2 t36 t48 ||| t1 t3 t187 t2 t36 t48 ||| 0.6 0.0304471 0.75 0.0208469 2.718 ||| 0-0 1-1 2-2 3-3 4-4 5-5 ||| 5 4 3
t1 t3 t187 t2 t38 t48 ||| t1 t3 t187 t2 t38 t48 ||| 0.666667 0.0216708 1 0.0140914 2.718 ||| 0-0 1-1 2-2 3-3 4-4 5-5 ||| 3 2 2
t1 t3 t187 t2 t38 ||| t1 t3 t187 t2 t38 ||| 0.4 0.043675 0.666667 0.0277036 2.718 ||| 0-0 1-1 2-2 3-3 4-4 ||| 5 3 2
t1 t3 t187 t2 t3961 t48 t3024 ||| t1 t3 t187 t2 t3961 t48 t3024 ||| 1 0.0147287 1 0.00935006 2.718 ||| 0-0 1-1 2-2 3-3 4-4 5-5 6-6 ||| 2 2 2
t1 t3 t187 t2 t3961 t48 ||| t1 t3 t187 t2 t3961 t48 ||| 1 0.0449045 1 0.0298746 2.718 ||| 0-0 1-1 2-2 3-3 4-4 5-5 ||| 2 2 2
t1 t3 t187 t2 t3961 ||| t1 t3 t187 t2 t3961 ||| 1 0.0904998 1 0.0587332 2.718 ||| 0-0 1-1 2-2 3-3 4-4 ||| 2 2 2
t1 t3 t187 t2 t45 t48 ||| t1 t3 t187 t2 t45 t48 ||| 1 0.0285593 1 0.0252975 2.718 ||| 0-0 1-1 2-2 3-3 4-4 5-5 ||| 2 2 2
t1 t3 t187 t2 t45 ||| t1 t3 t187 t2 t45 ||| 1 0.057558 1 0.0497347 2.718 ||| 0-0 1-1 2-2 3-3 4-4 ||| 2 2 2
t1 t3 t187 t2 t65 t48 t3024 ||| t1 t3 t187 t2 t65 t48 t3024 ||| 0.333333 0.00586042 0.666667 0.00435808 2.718 ||| 0-0 1-1 2-2 3-3 4-4 5-5 6-6 ||| 6 3 2
t1 t3 t187 t2 ||| t1 t3 t187 t2 ||| 0.565217 0.105583 0.722222 0.0783109 2.718 ||| 0-0 1-1 2-2 3-3 ||| 23 18 13
t1 t3 t187 t31 ||| t1 t3 t187 t31 ||| 0.666667 0.109119 0.2 0.102366 2.718 ||| 0-0 1-1 2-2 3-3 ||| 3 10 2
t1 t3 t187 t640 tco tco t1 ||| t1 t3 t187 t51 tco tco ||| 1 9.44792e-06 1 0.000870082 2.718 ||| 0-0 1-1 2-2 3-3 4-4 5-4 5-5 6-5 ||| 2 2 2
t1 t3 t187 t640 ||| t1 t3 t187 t51 ||| 1 0.00115353 1 0.00870682 2.718 ||| 0-0 1-1 2-2 3-3 ||| 2 2 2
t1 t3 t193 t100 t23 t972 t26 ||| t1 t3 t26 ||| 0.000239636 9.89547e-13 1 0.165761 2.718 ||| 0-0 1-1 2-2 5-2 6-2 ||| 8346 2 2
t1 t3 t193 t29 t23 ||| t1 t2 t3 t193 t29 t23 ||| 0.666667 0.023907 0.111111 0.00124387 2.718 ||| 0-0 0-1 1-2 2-3 3-4 4-5 ||| 3 18 2
t1 t3 t1943 t26 ||| t1 t3 t1943 t26 ||| 0.5 0.0449707 0.666667 0.0574127 2.718 ||| 0-0 1-1 2-2 3-3 ||| 4 3 2
t1 t3 t1943 ||| t1 t3 t1943 ||| 0.5 0.0529293 0.666667 0.0613555 2.718 ||| 0-0 1-1 2-2 ||| 4 3 2
t1 t3 t2 t65 t26 ||| t1 t3 t26 ||| 0.000239636 1.8156e-05 0.666667 0.145873 2.718 ||| 0-0 1-1 2-1 3-2 4-2 ||| 8346 3 2
t1 t3 t20 t1 t11 t3 ||| t1 t3 t20 t1 t11 t3 ||| 0.5 0.0413866 1 0.0379369 2.718 ||| 0-0 1-1 2-2 3-3 4-4 5-5 ||| 4 2 2
t1 t3 t20 t1 t11 ||| t1 t3 t20 t1 t11 ||| 0.333333 0.0546075 1 0.0510429 2.718 ||| 0-0 1-1 2-2 3-3 4-4 ||| 6 2 2
t1 t3 t20 t1 t3 t28 ||| t1 t3 t20 t1 t3 t28 ||| 0.666667 0.063903 0.4 0.0696883 2.718 ||| 0-0 1-1 2-2 3-3 4-4 5-5 ||| 3 5 2
t1 t3 t20 t1 t3 t45 t27 ||| t1 t3 t20 t1 t3 t45 t27 ||| 0.333333 0.0283168 0.666667 0.0379852 2.718 ||| 0-0 1-1 2-2 3-3 4-4 5-5 6-6 ||| 6 3 2
t1 t3 t20 t1 t3 t64 ||| t1 t3 t20 t1 t3 ||| 0.0175439 6.61999e-05 1 0.132527 2.718 ||| 0-0 1-1 2-2 3-3 4-4 ||| 114 2 2
t1 t3 t20 t1 t36 t3 t28 ||| t1 t3 t20 t1 t36 t3 t28 ||| 1 0.037139 1 0.0364722 2.718 ||| 0-0 1-1 2-2 3-3 4-4 5-5 6-6 ||| 2 2 2
t1 t3 t20 t154 ||| t1 t3 t20 t90 t154 ||| 1 0.0801357 0.2 0.000634364 2.718 ||| 0-0 1-1 2-2 3-3 3-4 ||| 2 10 2
t1 t3 t20 t259 ||| t1 t3 t20 t259 ||| 0.666667 0.1257 0.285714 0.157311 2.718 ||| 0-0 1-1 2-2 3-3 ||| 3 7 2
t1 t3 t20 t29 t23 t1 t36 ||| t1 t3 t20 t113 t23 t1 t36 ||| 0.666667 0.00882889 0.666667 0.000675727 2.718 ||| 0-0 1-1 2-2 3-3 4-4 5-5 6-6 ||| 3 3 2
t1 t3 t20 t29 t23 t1 ||| t1 t3 t20 t113 t23 t1 ||| 1 0.0151914 0.285714 0.00129113 2.718 ||| 0-0 1-1 2-2 3-3 4-4 5-5 ||| 2 7 2
t1 t3 t20 t29 t23 t49 t28 ||| t1 t3 t20 t29 t23 t49 t28 ||| 0.285714 0.0331594 0.666667 0.0471421 2.718 ||| 0-0 1-1 2-2 3-3 4-4 5-5 6-6 ||| 7 3 2
t1 t3 t20 t29 t23 ||| t1 t3 t20 t113 t23 ||| 0.8 0.0233062 0.0526316 0.00187683 2.718 ||| 0-0 1-1 2-2 3-3 4-4 ||| 5 76 4
t1 t3 t20 t29 t291 t29 t31 ||| t1 t3 t20 t146 t29 t28 t31 ||| 1 8.9924e-06 1 2.09828e-05 2.718 ||| 0-0 1-1 2-2 3-3 3-4 4-5 5-6 6-6 ||| 2 2 2
t1 t3 t20 t29 t291 ||| t1 t3 t20 t146 t29 t28 ||| 1 0.000577599 0.5 7.30935e-05 2.718 ||| 0-0 1-1 2-2 3-3 3-4 4-5 ||| 2 4 2
t1 t3 t20 t29 ||| t1 t3 t20 t146 t29 ||| 1 0.0928362 0.00746269 0.000378476 2.718 ||| 0-0 1-1 2-2 3-3 3-4 ||| 2 268 2
t1 t3 t20 t3 t23 t28 t31 ||| t1 t3 t20 t24 t28 t31 ||| 1 0.000358417 1 0.0011756 2.718 ||| 0-0 1-1 2-2 3-3 4-3 5-4 6-5 ||| 2 2 2
t1 t3 t20 t3 t23 t28 ||| t1 t3 t20 t24 t28 ||| 0.5 0.000618865 1 0.00206648 2.718 ||| 0-0 1-1 2-2 3-3 4-3 5-4 ||| 4 2 2
t1 t3 t20 t3 t23 t49 t27 ||| t1 t3 t20 t3 t23 t49 t27 ||| 1 0.0315229 1 0.0417901 2.718 ||| 0-0 1-1 2-2 3-3 4-4 5-5 6-6 ||| 2 2 2
t1 t3 t20 t3 t23 t49 ||| t1 t3 t20 t3 t23 t49 ||| 0.625 0.0784047 0.833333 0.0925982 2.718 ||| 0-0 1-1 2-2 3-3 4-4 5-5 ||| 8 6 5
t1 t3 t20 t3 t48 t4 t3 ||| t1 t3 t20 t3 t48 t4 t3 ||| 1 0.0380106 1 0.0395127 2.718 ||| 0-0 1-1 2-2 3-3 4-4 5-5 6-6 ||| 2 2 2
t1 t3 t20 t3 t48 t4 ||| t1 t3 t20 t3 t48 t4 ||| 0.5 0.050153 1 0.053163 2.718 ||| 0-0 1-1 2-2 3-3 4-4 5-5 ||| 4 2 2
t1 t3 t20 t3 t48 ||| t1 t3 t20 t3 t48 ||| 0.6 0.0983477 1 0.0979894 2.718 ||| 0-0 1-1 2-2 3-3 4-4 ||| 5 3 3
t1 t3 t20 t3 ||| t1 t3 t20 t105 t3 ||| 1 0.198208 0.018018 4.08218e-05 2.718 ||| 0-0 1-1 2-2 3-3 3-4 ||| 2 111 2
t1 t3 t20 t327 ||| t1 t3 t20 t327 ||| 0.217391 0.103682 0.625 0.121656 2.718 ||| 0-0 1-1 2-2 3-3 ||| 23 8 5
t1 t3 t20 t5 t3 ||| t1 t3 t20 t5 t3 ||| 0.5 0.0859313 0.666667 0.11024 2.718 ||| 0-0 1-1 2-2 3-3 4-4 ||| 4 3 2
t1 t3 t200 t16 t36 t2 t19 ||| t1 t3 t200 t16 t36 t2 t19 ||| 1 0.00633899 1 0.00390047 2.718 ||| 0-0 1-1 2-2 3-3 4-4 5-5 6-6 ||| 2 2 2
t1 t3 t200 t16 t36 t2 ||| t1 t3 t200 t16 t36 t2 ||| 1 0.0371284 1 0.018388 2.718 ||| 0-0 1-1 2-2 3-3 4-4 5-5 ||| 3 3 3
t1 t3 t200 t16 t36 ||| t1 t3 t200 t16 t36 ||| 1 0.0662551 1 0.0422514 2.718 ||| 0-0 1-1 2-2 3-3 4-4 ||| 3 3 3
t1 t3 t200 t16 ||| t1 t3 t200 t16 ||| 1 0.114002 1 0.0807308 2.718 ||| 0-0 1-1 2-2 3-3 ||| 3 3 3
t1 t3 t200 ||| t1 t3 t200 ||| 1 0.494007 1 0.511295 2.718 ||| 0-0 1-1 2-2 ||| 3 3 3
t1 t3 t2031 tco t13 t1 t36 ||| t1 t3 t2031 tco t13 t1 t36 ||| 1 0.00980743 1 0.0124311 2.718 ||| 0-0 1-1 2-2 3-3 4-4 5-5 6-6 ||| 2 2 2
t1 t3 t21 t1 t36 t38 t21 ||| t1 t3 t21 t1 t36 t38 t21 ||| 0.666667 0.0137643 0.4 0.00989782 2.718 ||| 0-0 1-1 2-2 3-3 4-4 5-5 6-6 ||| 3 5 2
t1 t3 t21 t100 t23 t24 ||| t1 t3 t21 t100 t23 t24 ||| 0.5 0.0214342 1 0.0156722 2.718 ||| 0-0 1-1 2-2 3-3 4-4 5-5 ||| 4 2 2
t1 t3 t21 t154 t1 t3 ||| t1 t3 t21 t154 t1 t3 ||| 0.333333 0.0627028 1 0.0696989 2.718 ||| 0-0 1-1 2-2 3-3 4-4 5-5 ||| 6 2 2
t1 t3 t21 t154 t1 ||| t1 t3 t21 t154 t1 ||| 0.428571 0.0827333 0.75 0.0937777 2.718 ||| 0-0 1-1 2-2 3-3 4-4 ||| 7 4 3
t1 t3 t21 t154 t2 ||| t1 t3 t154 t3 ||| 0.0540541 0.000191832 1 0.0329309 2.718 ||| 0-0 1-1 3-2 4-3 ||| 37 2 2
t1 t3 t21 t2 t38 t21 ||| t1 t3 t21 t2 t38 t21 ||| 1 0.0203613 0.375 0.0119642 2.718 ||| 0-0 1-1 2-2 3-3 4-4 5-5 ||| 3 8 3
t1 t3 t21 t28 t31 ||| t1 t3 t28 t31 ||| 0.0148148 0.00429155 1 0.152951 2.718 ||| 0-0 1-1 3-2 4-3 ||| 135 2 2
t1 t3 t21 t30 t38 t21 t23 ||| t1 t3 t21 t30 t38 t21 t23 ||| 1 0.0136037 1 0.0108466 2.718 ||| 0-0 1-1 2-2 3-3 4-4 5-5 6-6 ||| 2 2 2
t1 t3 t21 t30 t38 t21 ||| t1 t3 t21 t30 t38 t21 ||| 1 0.0228573 0.666667 0.017766 2.718 ||| 0-0 1-1 2-2 3-3 4-4 5-5 ||| 2 3 2
t1 t3 t21 t36 t1 t3 t4 ||| t1 t3 t193 t36 t1 t3 t4 ||| 1 0.00454512 1 0.000853906 2.718 ||| 0-0 1-1 2-2 3-3 4-4 5-5 6-6 ||| 2 2 2
t1 t3 t21 t36 t1 t3 ||| t1 t3 t193 t36 t1 t3 ||| 1 0.00891275 1 0.00157391 2.718 ||| 0-0 1-1 2-2 3-3 4-4 5-5 ||| 2 2 2
t1 t3 t21 t36 t1 ||| t1 t3 t193 t36 t1 ||| 1 0.0117599 1 0.00211764 2.718 ||| 0-0 1-1 2-2 3-3 4-4 ||| 2 2 2
t1 t3 t21 t38 t163 ||| t1 t3 t21 t38 t163 ||| 1 0.0315366 1 0.0207751 2.718 ||| 0-0 1-1 2-2 3-3 4-4 ||| 2 2 2
t1 t3 t21 t39 t3 ||| t1 t3 t21 t39 t3 ||| 0.307692 0.0638111 0.666667 0.0575273 2.718 ||| 0-0 1-1 2-2 3-3 4-4 ||| 13 6 4
t1 t3 t21 t98 t23 ||| t1 t3 t21 t98 t23 ||| 0.2 0.0763677 0.666667 0.0810987 2.718 ||| 0-0 1-1 2-2 3-3 4-4 ||| 10 3 2
t1 t3 t22 tco t1 t3 t13 ||| t1 t3 t22 tco t1 t3 t13 ||| 0.5 0.0163839 1 0.0167383 2.718 ||| 0-0 1-1 2-2 3-3 4-4 5-5 6-6 ||| 4 2 2
t1 t3 t22 tco t1 t3 t4 ||| t1 t3 t22 tco t1 t3 t4 ||| 1 0.0209889 0.666667 0.0221937 2.718 ||| 0-0 1-1 2-2 3-3 4-4 5-5 6-6 ||| 2 3 2
t1 t3 t23 t1 t103 t43 t167 ||| t1 t3 t23 t1 t103 t43 t167 ||| 1 0.0169152 1 0.0157584 2.718 ||| 0-0 1-1 2-2 3-3 4-4 5-5 6-6 ||| 2 2 2
t1 t3 t23 t1 t103 t43 ||| t1 t3 t23 t1 t103 t43 ||| 0.666667 0.036041 0.666667 0.0324704 2.718 ||| 0-0 1-1 2-2 3-3 4-4 5-5 ||| 3 3 2
t1 t3 t23 t1 t103 ||| t1 t3 t23 t1 t103 ||| 0.4 0.0903234 1 0.0876872 2.718 ||| 0-0 1-1 2-2 3-3 4-4 ||| 5 2 2
t1 t3 t23 t1 t36 t167 t4 ||| t1 t3 t23 t1 t36 t167 t4 ||| 0.333333 0.0266572 1 0.0295921 2.718 ||| 0-0 1-1 2-2 3-3 4-4 5-5 6-6 ||| 6 2 2
t1 t3 t23 t1024 ||| t1 t3 t23 t1024 ||| 0.4 0.023521 1 0.0480243 2.718 ||| 0-0 1-1 2-2 3-3 ||| 5 2 2
t1 t3 t23 t103 t103 ||| t1 t3 t23 t103 t103 ||| 0.666667 0.0653104 0.5 0.0520484 2.718 ||| 0-0 1-1 2-2 3-3 4-4 ||| 3 4 2
t1 t3 t23 t103 t167 t26 ||| t1 t3 t23 t103 t46 t26 ||| 0.0833333 0.0055465 1 0.00634754 2.718 ||| 0-0 1-1 2-2 3-3 4-4 5-5 ||| 24 2 2
t1 t3 t23 t103 t46 t193 ||| t1 t3 t23 t103 t46 t74 ||| 1 0.000260387 0.5 0.00207282 2.718 ||| 0-0 1-1 2-2 3-3 4-4 5-5 ||| 2 4 2
t1 t3 t23 t1149 t20 ||| t1 t3 t23 t1149 t20 ||| 0.375 0.034847 0.75 0.0370892 2.718 ||| 0-0 1-1 2-2 3-3 4-4 ||| 8 4 3
t1 t3 t23 t129 t31 t23 t324 ||| t1 t3 t45 t23 t50 ||| 0.0224719 4.6162e-08 1 0.00291613 2.718 ||| 0-0 1-1 3-2 4-2 5-3 6-4 ||| 89 2 2
t1 t3 t23 t129 t31 t68 ||| t1 t3 t23 t129 t31 t68 ||| 0.384615 0.0145142 0.625 0.0115617 2.718 ||| 0-0 1-1 2-2 3-3 4-4 5-5 ||| 13 8 5
t1 t3 t23 t1309 t26 ||| t4 t1 t3 t26 ||| 0.00145033 2.06097e-06 1 0.0281435 2.718 ||| 3-0 0-1 1-2 4-3 ||| 1379 2 2
t1 t3 t23 t1353 t24 ||| t1 t3 t23 t49 ||| 0.00749064 8.9092e-06 0.666667 0.0141914 2.718 ||| 0-0 1-1 2-2 3-3 4-3 ||| 267 3 2
t1 t3 t23 t24 t331 tco t1 ||| t1 t3 t23 t24 t331 tco t1 ||| 0.666667 0.00949738 0.666667 0.0128259 2.718 ||| 0-0 1-1 2-2 3-3 4-4 5-5 6-6 ||| 3 3 2
t1 t3 t23 t24 ||| t1 t3 t259 t3 ||| 1 6.30992e-05 0.0136986 9.3203e-05 2.718 ||| 0-0 1-1 2-2 3-3 ||| 2 146 2
t1 t3 t23 t2456 t26 ||| t1 t3 t23 t46 t26 ||| 0.011976 4.60639e-05 1 0.0486831 2.718 ||| 0-0 1-1 2-2 3-3 4-4 ||| 167 2 2
t1 t3 t23 t2456 ||| t1 t3 t23 t46 ||| 0.00536193 5.4216e-05 1 0.0520264 2.718 ||| 0-0 1-1 2-2 3-3 ||| 373 2 2
t1 t3 t23 t25 tco t3 t17 ||| t1 t3 t23 t25 tco t3 t17 ||| 1 0.0176494 1 0.0195675 2.718 ||| 0-0 1-1 2-2 3-3 4-4 5-5 6-6 ||| 2 2 2
t1 t3 t23 t27 t3 t26 ||| t1 t3 t27 t3 t26 ||| 0.0689655 0.0115978 0.666667 0.0878582 2.718 ||| 0-0 1-1 2-2 3-2 4-3 5-4 ||| 29 3 2
t1 t3 t23 t27 t3 t4 t30 ||| t1 t3 t27 t30 ||| 0.0298507 0.000359519 1 0.0557965 2.718 ||| 0-0 1-1 4-1 2-2 3-2 5-2 6-3 ||| 67 2 2
t1 t3 t23 t28 t31 t68 t30 ||| t3 t45 t27 t30 ||| 0.02 8.52399e-07 0.666667 0.00293946 2.718 ||| 1-0 2-1 3-1 4-1 5-2 6-3 ||| 100 3 2
t1 t3 t23 t2847 t26 ||| t1 t3 t214 t113 t26 ||| 0.333333 1.42563e-05 0.75 0.000959061 2.718 ||| 0-0 1-1 2-2 3-3 4-4 ||| 9 4 3
t1 t3 t23 t2847 ||| t1 t3 t214 t113 ||| 0.428571 1.67793e-05 0.75 0.00102492 2.718 ||| 0-0 1-1 2-2 3-3 ||| 7 4 3
t1 t3 t23 t29 t26 t1869 ||| t1 t3 t23 t29 t26 ||| 0.153846 0.00160932 1 0.14302 2.718 ||| 0-0 1-1 2-2 3-3 4-4 5-4 ||| 13 2 2
t1 t3 t23 t29 t26 ||| t1 t3 t23 t29 t26 ||| 0.384615 0.161882 0.714286 0.210188 2.718 ||| 0-0 1-1 2-2 3-3 4-4 ||| 13 7 5
t1 t3 t23 t388 t26 ||| t1 t3 t23 t46 t26 ||| 0.011976 0.000736947 1 0.0692382 2.718 ||| 0-0 1-1 2-2 3-3 4-4 ||| 167 2 2
t1 t3 t23 t404 ||| t1 t36 t3 t404 ||| 0.666667 0.0064347 0.5 0.00395173 2.718 ||| 0-0 0-1 1-2 2-3 3-3 ||| 3 4 2
t1 t3 t23 t46 t193 t1 t3 ||| t1 t3 t23 t46 t193 t1 t3 ||| 0.75 0.0112125 0.75 0.0164262 2.718 ||| 0-0 1-1 2-2 3-3 4-4 5-5 6-6 ||| 4 4 3
t1 t3 t23 t46 t193 t1 ||| t1 t3 t23 t46 t193 t1 ||| 0.75 0.0147943 0.75 0.0221009 2.718 ||| 0-0 1-1 2-2 3-3 4-4 5-5 ||| 4 4 3
t1 t3 t23 t49 t27 t3 ||| t1 t3 t23 t49 t27 t3 ||| 0.375 0.0595449 0.75 0.0824349 2.718 ||| 0-0 1-1 2-2 3-3 4-4 5-5 ||| 8 4 3
t1 t3 t23 t49 t27 t30 t3 ||| t1 t3 t23 t49 t27 t30 t3 ||| 0.75 0.0374584 0.75 0.0532733 2.718 ||| 0-0 1-1 2-2 3-3 4-4 5-5 6-6 ||| 4 4 3
t1 t3 t23 t49 t27 t30 ||| t1 t3 t23 t49 t27 t30 ||| 0.5 0.0494245 0.75 0.0716775 2.718 ||| 0-0 1-1 2-2 3-3 4-4 5-5 ||| 6 4 3
t1 t3 t23 t49 t28 t31 t23 ||| t1 t3 t45 t49 t23 ||| 0.0638298 2.42179e-05 0.75 0.00567668 2.718 ||| 0-0 1-1 2-2 3-3 4-4 6-4 ||| 47 4 3
t1 t3 t23 t49 t320 t31 ||| t1 t3 t23 t49 t320 t31 ||| 1 0.0246235 1 0.018221 2.718 ||| 0-0 1-1 2-2 3-3 4-4 5-5 ||| 2 2 2
t1 t3 t23 t49 t320 ||| t1 t3 t23 t49 t320 ||| 1 0.0425166 0.5 0.032029 2.718 ||| 0-0 1-1 2-2 3-3 4-4 ||| 2 4 2
t1 t3 t23 t49 t331 ||| t1 t3 t23 t49 t331 ||| 0.666667 0.0479173 0.4 0.0832208 2.718 ||| 0-0 1-1 2-2 3-3 4-4 ||| 3 5 2
t1 t3 t23 t49 t46 t26 ||| t29 t23 t49 t46 t26 ||| 0.019802 0.000182036 0.666667 0.00753521 2.718 ||| 0-0 1-0 2-1 3-2 4-3 5-4 ||| 101 3 2
t1 t3 t23 t49 t57 tco t1 ||| t1 t3 t23 t49 t27 t1 ||| 0.133333 9.18654e-05 0.666667 0.012339 2.718 ||| 0-0 1-1 2-2 3-3 4-4 5-4 6-5 ||| 15 3 2
t1 t3 t23 t49 ||| t1 t2 t2 t3 t23 t49 ||| 1 0.0584171 0.0130435 6.76319e-05 2.718 ||| 0-0 0-1 1-2 1-3 2-4 3-5 ||| 3 230 3
t1 t3 t23 t520 ||| t29 t23 t520 ||| 0.0666667 0.000142638 0.666667 0.00533741 2.718 ||| 0-0 1-0 2-1 3-2 ||| 30 3 2
t1 t3 t23 t724 tco t1 t3 ||| t1 t3 t23 t724 tco t1 t3 ||| 1 0.0202805 0.6 0.015964 2.718 ||| 0-0 1-1 2-2 3-3 4-4 5-5 6-6 ||| 3 5 3
t1 t3 t23 t724 tco t1 ||| t1 t3 t23 t724 tco t1 ||| 0.75 0.0267591 0.6 0.0214791 2.718 ||| 0-0 1-1 2-2 3-3 4-4 5-5 ||| 4 5 3
t1 t3 t23 t84 t24 t84 ||| t90 t20 t1 t3 t23 ||| 0.0487805 3.45939e-07 0.666667 0.000333258 2.718 ||| 4-0 5-1 0-2 1-3 2-4 ||| 41 3 2
t1 t3 t23 t972 ||| t1 t3 t23 t972 ||| 0.8 0.0867579 1 0.0454967 2.718 ||| 0-0 1-1 2-2 3-3 ||| 5 4 4
t1 t3 t23 ||| t1 t3 t21 t29 t23 ||| 0.666667 0.152475 0.00105319 0.000240497 2.718 ||| 0-0 1-1 2-3 2-4 ||| 3 1899 2
t1 t3 t23 ||| t649 t29 t20 t1 t3 t23 ||| 0.666667 0.294013 0.00105319 7.03157e-08 2.718 ||| 0-3 1-4 2-5 ||| 3 1899 2
t1 t3 t232 tco ||| t1 t3 t4 ||| 0.000325839 4.02646e-05 0.666667 0.0842976 2.718 ||| 0-0 1-1 2-2 3-2 ||| 6138 3 2
t1 t3 t24 t423 ||| t1 t3 t423 ||| 0.0645161 0.000405252 0.666667 0.109952 2.718 ||| 0-0 1-1 2-1 3-2 ||| 31 3 2
t1 t3 t259 t29 t214 t69 t26 ||| t1 t3 t259 t29 t214 t69 t26 ||| 0.666667 0.0174775 1 0.0290267 2.718 ||| 0-0 1-1 2-2 3-3 4-4 5-5 6-6 ||| 3 2 2
t1 t3 t259 t29 t214 t69 ||| t1 t3 t259 t29 t214 t69 ||| 0.666667 0.0205706 1 0.03102 2.718 ||| 0-0 1-1 2-2 3-3 4-4 5-5 ||| 3 2 2
t1 t3 t259 t29 t784 ||| t1 t3 t259 t29 t784 ||| 0.571429 0.0479344 1 0.0897964 2.718 ||| 0-0 1-1 2-2 3-3 4-4 ||| 7 4 4
t1 t3 t259 t29 ||| t1 t3 t259 t29 ||| 0.386364 0.153869 0.68 0.223294 2.718 ||| 0-0 1-1 2-2 3-3 ||| 44 25 17
t1 t3 t26 ||| t1 t188 t26 ||| 0.666667 0.13471 0.000280584 0.0002806 2.718 ||| 0-0 1-1 2-2 ||| 3 7128 2
t1 t3 t26 ||| t1 t2 t3 t38 t26 ||| 0.75 0.151634 0.000420875 8.32692e-05 2.718 ||| 0-0 0-1 1-2 1-3 2-4 ||| 4 7128 3
t1 t3 t26 ||| t1 t2 t65 t48 t26 ||| 1 0.0582973 0.000280584 1.21524e-07 2.718 ||| 0-0 0-1 1-2 1-3 2-4 ||| 2 7128 2
t1 t3 t26 ||| t1 t3 t26 ||| 0.53259 0.419726 0.623597 0.47844 2.718 ||| 0-0 1-1 2-2 ||| 8346 7128 4445
t1 t3 t2658 t21 ||| t1 t3 t4 ||| 0.000325839 2.79861e-07 1 0.0426079 2.718 ||| 0-0 1-1 2-2 ||| 6138 2 2
t1 t3 t27 t1 t3 t4 ||| t1 t3 t23 t27 t1 t3 t4 ||| 0.666667 0.0272359 0.0645161 0.00556023 2.718 ||| 0-0 1-1 2-2 2-3 3-4 4-5 5-6 ||| 3 31 2
t1 t3 t27 t1 t36 t2 t3 ||| t1 t3 t27 t1 t36 t3 ||| 0.0555556 0.00636775 1 0.0374248 2.718 ||| 0-0 1-1 2-2 3-3 4-4 5-4 6-5 ||| 36 2 2
t1 t3 t27 t1 t36 t2 ||| t1 t3 t27 t1 t36 ||| 0.047619 0.00840192 1 0.0503539 2.718 ||| 0-0 1-1 2-2 3-3 4-4 5-4 ||| 42 2 2
t1 t3 t27 t1 t73 ||| t1 t3 t27 t1 t73 ||| 0.5 0.0352021 1 0.0447105 2.718 ||| 0-0 1-1 2-2 3-3 4-4 ||| 4 2 2
t1 t3 t27 t2 t3 t26 ||| t1 t3 t27 t2 t3 t26 ||| 1 0.0716711 1 0.0698421 2.718 ||| 0-0 1-1 2-2 3-3 4-4 5-5 ||| 2 2 2
t1 t3 t27 t29 t76 t77 t29 ||| t1 t3 t27 t29 t76 t77 t29 ||| 0.666667 0.0176057 1 0.0371881 2.718 ||| 0-0 1-1 2-2 3-3 4-4 5-5 6-6 ||| 3 2 2
t1 t3 t27 t29 t76 t77 ||| t1 t3 t27 t29 t76 t77 ||| 0.666667 0.0271678 0.666667 0.0516802 2.718 ||| 0-0 1-1 2-2 3-3 4-4 5-5 ||| 3 3 2
t1 t3 t27 t29 t76 ||| t1 t3 t27 t29 t76 ||| 0.333333 0.0590854 0.666667 0.0912829 2.718 ||| 0-0 1-1 2-2 3-3 4-4 ||| 6 3 2
t1 t3 t27 t5 t3 ||| t1 t3 t27 t5 t3 ||| 0.666667 0.065261 1 0.0981408 2.718 ||| 0-0 1-1 2-2 3-3 4-4 ||| 3 2 2
t1 t3 t27 t5 ||| t1 t3 t27 t5 ||| 0.666667 0.0861086 1 0.132045 2.718 ||| 0-0 1-1 2-2 3-3 ||| 3 2 2
t1 t3 t27 t73 ||| t1 t3 t27 t73 ||| 1 0.0540061 0.666667 0.0649926 2.718 ||| 0-0 1-1 2-2 3-3 ||| 2 3 2
t1 t3 t278 t235 ||| t1 t3 t278 t235 ||| 0.666667 0.0285732 0.285714 0.0178379 2.718 ||| 0-0 1-1 2-2 3-3 ||| 3 7 2
t1 t3 t278 t97 t1 t2 t3 ||| t1 t3 t278 t97 t1 t2 t3 ||| 0.666667 0.0131085 0.666667 0.00822718 2.718 ||| 0-0 1-1 2-2 3-3 4-4 5-5 6-6 ||| 3 3 2
t1 t3 t278 t97 t1 t2 ||| t1 t3 t278 t97 t1 t2 ||| 0.666667 0.017296 0.666667 0.0110694 2.718 ||| 0-0 1-1 2-2 3-3 4-4 5-5 ||| 3 3 2
t1 t3 t278 ||| t1 t3 t69 t278 ||| 0.666667 0.083364 0.0273973 0.000878429 2.718 ||| 0-0 1-1 1-2 2-3 ||| 6 146 4
t1 t3 t28 t29 t45 t49 ||| t1 t3 t28 t29 t45 t49 ||| 0.666667 0.0573724 0.5 0.0967346 2.718 ||| 0-0 1-1 2-2 3-3 4-4 5-5 ||| 3 4 2
t1 t3 t28 t30 ||| t1 t3 t28 t30 ||| 0.666667 0.153713 0.4 0.17375 2.718 ||| 0-0 1-1 2-2 3-3 ||| 3 5 2
t1 t3 t28 t31 t102 tco t1 ||| t1 t3 t28 t31 t102 tco t1 ||| 0.666667 0.00983045 0.5 0.0109902 2.718 ||| 0-0 1-1 2-2 3-3 4-4 5-5 6-6 ||| 3 4 2
t1 t3 t28 t74 t1 t2 ||| t1 t3 t28 t74 t1 t2 ||| 1 0.050385 0.666667 0.0441585 2.718 ||| 0-0 1-1 2-2 3-3 4-4 5-5 ||| 2 3 2
t1 t3 t28 t74 t1 t3 t4 ||| t1 t3 t28 t74 t1 t3 t4 ||| 0.5 0.03475 0.8 0.0409147 2.718 ||| 0-0 1-1 2-2 3-3 4-4 5-5 6-6 ||| 8 5 4
t1 t3 t28 t74 t1 t36 ||| t1 t3 t28 t74 t1 t36 ||| 0.4 0.0522545 0.666667 0.0531034 2.718 ||| 0-0 1-1 2-2 3-3 4-4 5-5 ||| 5 3 2
t1 t3 t28 t74 t36 t3 ||| t1 t3 t28 t74 t36 t3 ||| 0.428571 0.0607582 1 0.0573726 2.718 ||| 0-0 1-1 2-2 3-3 4-4 5-5 ||| 7 3 3
t1 t3 t28 t74 t36 ||| t1 t3 t28 t74 t36 ||| 0.375 0.0801674 1 0.0771929 2.718 ||| 0-0 1-1 2-2 3-3 4-4 ||| 8 3 3
t1 t3 t28 t74 ||| t1 t3 t28 t74 t20 ||| 0.75 0.13794 0.0365854 0.00795037 2.718 ||| 0-0 1-1 2-2 3-3 ||| 4 82 3
t1 t3 t287 ||| t1 t3 ||| 5.45613e-05 1.50178e-05 0.666667 0.511295 2.718 ||| 0-0 1-1 ||| 36656 3 2
t1 t3 t289 t154 ||| t1 t3 t289 t154 ||| 0.142857 0.0789883 0.666667 0.0667573 2.718 ||| 0-0 1-1 2-2 3-3 ||| 14 3 2
t1 t3 t289 t68 t29 t26 ||| t1 t3 t289 t68 t29 t26 ||| 1 0.0214788 0.25 0.0187173 2.718 ||| 0-0 1-1 2-2 3-3 4-4 5-5 ||| 2 8 2
t1 t3 t289 t68 t29 ||| t1 t3 t289 t68 t29 ||| 1 0.02528 0.2 0.0200027 2.718 ||| 0-0 1-1 2-2 3-3 4-4 ||| 2 10 2
t1 t3 t29 t214 t26 ||| t29 t214 t26 ||| 0.0034904 0.00183273 0.666667 0.146862 2.718 ||| 1-0 2-0 3-1 4-2 ||| 573 3 2
t1 t3 t29 t23 t119 t31 t671 ||| t1 t3 t29 t23 t119 t31 t671 ||| 1 0.0072356 0.5 0.00793253 2.718 ||| 0-0 1-1 2-2 3-3 4-4 5-5 6-6 ||| 2 4 2
t1 t3 t29 t23 t119 t31 ||| t1 t3 t29 t23 t119 t31 ||| 0.5 0.0355449 0.666667 0.0359938 2.718 ||| 0-0 1-1 2-2 3-3 4-4 5-5 ||| 4 3 2
t1 t3 t29 t23 t1309 ||| t1 t3 t29 t23 t1309 ||| 0.666667 0.0433024 0.5 0.0330328 2.718 ||| 0-0 1-1 2-2 3-3 4-4 ||| 3 4 2
t1 t3 t29 t23 t272 t31 ||| t1 t3 t20 t29 t23 t272 t31 ||| 0.5 0.0345022 1 0.00292257 2.718 ||| 0-0 1-1 2-3 3-4 4-5 5-6 ||| 4 2 2
t1 t3 t29 t23 t272 ||| t1 t3 t20 t29 t23 t272 ||| 0.333333 0.0595737 1 0.00513733 2.718 ||| 0-0 1-1 2-3 3-4 4-5 ||| 6 2 2
t1 t3 t29 t23 t846 tco t23 ||| t1 t3 t29 t23 t846 tco t23 ||| 0.666667 0.0119121 0.666667 0.0145113 2.718 ||| 0-0 1-1 2-2 3-3 4-4 5-5 6-6 ||| 3 3 2
t1 t3 t29 t27 t1 t3 ||| t1 t3 t29 t27 t1 t3 ||| 0.428571 0.0635842 0.75 0.0848973 2.718 ||| 0-0 1-1 2-2 3-3 4-4 5-5 ||| 7 4 3
t1 t3 t29 t45 t846 ||| t1 t3 t29 t45 t119 ||| 0.666667 0.000677309 0.4 0.00383052 2.718 ||| 0-0 1-1 2-2 3-3 4-4 ||| 3 5 2
t1 t3 t29 t595 ||| t1 t3 t29 t595 ||| 0.25 0.0413076 0.666667 0.0498872 2.718 ||| 0-0 1-1 2-2 3-3 ||| 8 3 2
t1 t3 t29 t87 t13 ||| t1 t3 t29 t23 t87 t13 ||| 0.666667 0.0198455 0.08 0.00241324 2.718 ||| 0-0 1-1 2-2 3-3 3-4 4-5 ||| 3 25 2
t1 t3 t29 t87 t26 ||| t1 t3 t29 t846 tco t26 ||| 0.666667 0.0253676 0.0444444 0.000184484 2.718 ||| 0-0 1-1 2-2 3-3 4-5 ||| 3 45 2
t1 t3 t29 t87 ||| t1 t3 t29 t846 ||| 0.666667 0.029857 0.0384615 0.00455784 2.718 ||| 0-0 1-1 2-2 3-3 ||| 6 104 4
t1 t3 t3 t27 t3 t21 ||| t1 t7 t8 t3 t193 t36 t38 ||| 1 2.46975e-05 0.333333 1.07151e-11 2.718 ||| 0-0 1-1 2-1 3-2 4-3 5-4 ||| 6 18 6
t1 t3 t3 t27 t3 t21 ||| t1 t7 t8 t3 t193 t36 ||| 1 2.46975e-05 0.333333 2.38013e-09 2.718 ||| 0-0 1-1 2-1 3-2 4-3 5-4 ||| 6 18 6
t1 t3 t3 t27 t3 t21 ||| t1 t7 t8 t3 t193 ||| 1 2.46975e-05 0.333333 7.82924e-08 2.718 ||| 0-0 1-1 2-1 3-2 4-3 5-4 ||| 6 18 6
t1 t3 t3 t27 t3 ||| t1 t7 t8 t3 ||| 0.0140562 0.00039302 0.777778 6.8059e-06 2.718 ||| 0-0 1-1 2-1 3-2 4-3 ||| 498 9 7
t1 t3 t30 t2 ||| t1 t3 t30 ||| 0.166667 0.00775894 0.666667 0.168415 2.718 ||| 0-0 1-1 2-2 3-2 ||| 12 3 2
t1 t3 t30 t3 t23 ||| t1 t3 t30 t3 t23 ||| 0.666667 0.140177 0.333333 0.149934 2.718 ||| 0-0 1-1 2-2 3-3 4-4 ||| 3 6 2
t1 t3 t306 t29 t1 t3 ||| t1 t3 t306 t29 t1 t3 ||| 0.666667 0.0512118 0.4 0.0706446 2.718 ||| 0-0 1-1 2-2 3-3 4-4 5-5 ||| 3 5 2
t1 t3 t31 t1107 t74 t29 t23 ||| t1 t3 t31 t1107 t74 t29 t23 ||| 0.666667 0.0173037 1 0.0113068 2.718 ||| 0-0 1-1 2-2 3-3 4-4 5-5 6-6 ||| 3 2 2
t1 t3 t31 t1107 t74 t29 ||| t1 t3 t31 t1107 t74 t29 ||| 0.666667 0.029074 0.666667 0.0185198 2.718 ||| 0-0 1-1 2-2 3-3 4-4 5-5 ||| 3 3 2
t1 t3 t31 t1107 t74 ||| t1 t3 t31 t1107 t74 ||| 0.75 0.0448648 0.5 0.025737 2.718 ||| 0-0 1-1 2-2 3-3 4-4 ||| 4 6 3
t1 t3 t31 t282 t1 t2 t3 ||| t1 t3 t31 t61 t1 t2 t3 ||| 0.333333 0.000831534 1 0.0012629 2.718 ||| 0-0 1-1 2-2 3-3 4-4 5-5 6-6 ||| 6 2 2
t1 t3 t31 t282 t1 t2 ||| t1 t3 t31 t61 t1 t2 ||| 0.25 0.00109717 1 0.00169919 2.718 ||| 0-0 1-1 2-2 3-3 4-4 5-5 ||| 8 2 2
t1 t3 t31 t328 t30 t3 t26 ||| t1 t3 t31 t328 t30 t3 t26 ||| 1 0.0317708 0.666667 0.0372768 2.718 ||| 0-0 1-1 2-2 3-3 4-4 5-5 6-6 ||| 2 3 2
t1 t3 t31 t328 t30 t3 ||| t1 t3 t31 t328 t30 t3 ||| 0.333333 0.0373935 0.666667 0.0398367 2.718 ||| 0-0 1-1 2-2 3-3 4-4 5-5 ||| 6 3 2
t1 t3 t31 t328 t30 ||| t1 t3 t31 t328 t30 ||| 0.285714 0.0493388 0.666667 0.0535989 2.718 ||| 0-0 1-1 2-2 3-3 4-4 ||| 7 3 2
t1 t3 t31 t375 tco ||| t1 t3 t31 t375 tco ||| 0.666667 0.0272606 1 0.0187116 2.718 ||| 0-0 1-1 2-2 3-3 4-4 ||| 3 2 2
t1 t3 t31 t375 ||| t1 t3 t31 t375 ||| 1 0.0591617 0.666667 0.042517 2.718 ||| 0-0 1-1 2-2 3-3 ||| 2 3 2
t1 t3 t31 t61 t30 t3 t26 ||| t1 t3 t31 t61 t30 t3 t26 ||| 0.5 0.0279855 0.666667 0.0319874 2.718 ||| 0-0 1-1 2-2 3-3 4-4 5-5 6-6 ||| 4 3 2
t1 t3 t36 t87 t26 ||| t30 t3 t26 ||| 0.000536049 6.43131e-07 1 0.00546834 2.718 ||| 0-0 1-1 2-1 3-2 4-2 ||| 3731 2 2
t1 t3 t375 t69 t13 t1 ||| t1 t3 t81 t13 t1 ||| 0.0333333 6.06949e-05 0.666667 0.0162716 2.718 ||| 0-0 1-1 2-2 3-3 4-3 5-4 ||| 60 3 2
t1 t3 t375 t69 t13 ||| t1 t3 t81 t13 ||| 0.0151515 9.31164e-05 0.666667 0.0236529 2.718 ||| 0-0 1-1 2-2 3-3 4-3 ||| 132 3 2
t1 t3 t39 t1 t2 t3 ||| t1 t3 t17 t18 t13 t1 t3 ||| 0.666667 6.45222e-05 0.133333 7.41886e-06 2.718 ||| 0-0 1-1 2-2 2-3 3-3 2-4 3-5 4-5 5-6 ||| 3 15 2
t1 t3 t4 t1 t2 t3 t39 ||| t1 t3 t4 t1 t2 t3 t39 ||| 0.75 0.0281882 0.5 0.0239684 2.718 ||| 0-0 1-1 2-2 3-3 4-4 5-5 6-6 ||| 4 6 3
t1 t3 t4 t1 t3 t21 t100 ||| t1 t3 t4 t1 t3 t21 t100 ||| 0.2 0.0206853 0.666667 0.0177676 2.718 ||| 0-0 1-1 2-2 3-3 4-4 5-5 6-6 ||| 10 3 2
t1 t3 t4 t1 t3 t23 t103 ||| t1 t3 t4 t1 t3 t23 t103 ||| 0.666667 0.0349092 0.4 0.0353585 2.718 ||| 0-0 1-1 2-2 3-3 4-4 5-5 6-6 ||| 3 5 2
t1 t3 t4 t1 t3 t23 t50 ||| t1 t3 t4 t1 t3 t23 t50 ||| 0.285714 0.0244556 0.666667 0.0299552 2.718 ||| 0-0 1-1 2-2 3-3 4-4 5-5 6-6 ||| 7 3 2
t1 t3 t4 t1 t3 t45 t49 ||| t1 t3 t4 t1 t3 t45 t49 ||| 0.428571 0.0450917 0.75 0.0709172 2.718 ||| 0-0 1-1 2-2 3-3 4-4 5-5 6-6 ||| 7 4 3
t1 t3 t4 t1 t3 t62 ||| t1 t3 t4 t1 t3 t62 ||| 0.5 0.0533511 0.75 0.0587804 2.718 ||| 0-0 1-1 2-2 3-3 4-4 5-5 ||| 6 4 3
t1 t3 t4 t1 t36 t3 t21 ||| t1 t3 t4 t1 t36 t3 t84 ||| 1 0.00694856 0.222222 0.00103545 2.718 ||| 0-0 1-1 2-2 3-3 4-4 5-5 6-6 ||| 2 9 2
t1 t3 t4 t1 t36 t3 t21 ||| t1 t3 t4 t1 t36 t3 t92 ||| 1 0.0147063 0.222222 0.00147921 2.718 ||| 0-0 1-1 2-2 3-3 4-4 5-5 6-6 ||| 2 9 2
t1 t3 t4 t1 t36 t3 t39 ||| t1 t3 t4 t1 t36 t3 t39 ||| 0.6 0.0292341 0.75 0.0288236 2.718 ||| 0-0 1-1 2-2 3-3 4-4 5-5 6-6 ||| 5 4 3
t1 t3 t4 t1 t36 t3 t96 ||| t1 t3 t4 t1 t36 t3 t96 ||| 0.4 0.0323367 0.666667 0.0337127 2.718 ||| 0-0 1-1 2-2 3-3 4-4 5-5 6-6 ||| 5 3 2
t1 t3 t4 t1 t73 t26 ||| t1 t3 t4 t1 t73 t26 ||| 0.666667 0.0379359 0.333333 0.0502949 2.718 ||| 0-0 1-1 2-2 3-3 4-4 5-5 ||| 3 6 2
t1 t3 t4 t113 t20 ||| t1 t3 t4 t1 t3 t20 ||| 0.028169 0.000767854 1 0.000718572 2.718 ||| 0-0 1-1 2-2 3-3 3-4 4-5 ||| 71 2 2
t1 t3 t4 t2 t3 t187 ||| t1 t3 t4 t2 t3 t187 ||| 1 0.040807 0.5 0.0315777 2.718 ||| 0-0 1-1 2-2 3-3 4-4 5-5 ||| 2 4 2
t1 t3 t4 t2 t3 t39 t36 ||| t1 t3 t4 t2 t3 t39 t36 ||| 0.666667 0.0251333 0.4 0.0182346 2.718 ||| 0-0 1-1 2-2 3-3 4-4 5-5 6-6 ||| 3 5 2
t1 t3 t4 t2 t3 t48 t26 ||| t1 t3 t4 t2 t3 t48 t26 ||| 0.5 0.045106 1 0.0427066 2.718 ||| 0-0 1-1 2-2 3-3 4-4 5-5 6-6 ||| 4 2 2
t1 t3 t4 t2 t3 t48 ||| t1 t3 t4 t2 t3 t48 ||| 0.428571 0.0530886 0.75 0.0456394 2.718 ||| 0-0 1-1 2-2 3-3 4-4 5-5 ||| 7 4 3
t1 t3 t4 t2 t3 t60 t1 ||| t1 t118 t4 t3 t177 tco t1 ||| 1 1.47261e-05 1 2.81783e-09 2.718 ||| 0-0 1-1 2-2 3-2 4-3 5-4 5-5 6-6 ||| 2 2 2
t1 t3 t4 t2 t3 t60 ||| t1 t118 t4 t3 t177 tco ||| 1 2.25924e-05 1 4.09609e-09 2.718 ||| 0-0 1-1 2-2 3-2 4-3 5-4 5-5 ||| 2 2 2
t1 t3 t4 t29 t45 t57 ||| t1 t3 t4 t29 t45 t81 ||| 1 0.00239902 1 0.0134477 2.718 ||| 0-0 1-1 2-2 3-3 4-4 5-5 ||| 2 2 2
t1 t3 t4 t3 t17 t18 t20 ||| t1 t3 t4 t3 t17 t18 t20 ||| 0.666667 0.0223779 1 0.0263541 2.718 ||| 0-0 1-1 2-2 3-3 4-4 5-5 6-6 ||| 3 2 2
t1 t3 t4 t3 t23 t167 ||| t1 t3 t4 t3 t23 t167 ||| 0.333333 0.0533319 0.666667 0.0610881 2.718 ||| 0-0 1-1 2-2 3-3 4-4 5-5 ||| 6 3 2
t1 t3 t4 t3 t29 t45 ||| t3 t13 t3 t29 t45 ||| 0.4 0.000967456 1 0.00740703 2.718 ||| 1-0 2-1 3-2 3-3 4-3 5-4 ||| 5 2 2
t1 t3 t4 t3 t36 t3 t27 ||| t1 t3 t4 t3 t36 t3 t27 ||| 1 0.0338122 1 0.0361933 2.718 ||| 0-0 1-1 2-2 3-3 4-4 5-5 6-6 ||| 2 2 2
t1 t3 t4 t3 t36 t3 ||| t1 t3 t4 t3 t36 t3 ||| 0.666667 0.0840986 1 0.0801969 2.718 ||| 0-0 1-1 2-2 3-3 4-4 5-5 ||| 3 2 2
t1 t3 t4 t3 t36 ||| t1 t3 t4 t3 t36 ||| 1 0.110964 0.5 0.107902 2.718 ||| 0-0 1-1 2-2 3-3 4-4 ||| 3 6 3
t1 t3 t4 t3 t69 t26 ||| t1 t3 t4 t3 t69 t26 ||| 0.666667 0.0574743 0.2 0.0659782 2.718 ||| 0-0 1-1 2-2 3-3 4-4 5-5 ||| 3 10 2
t1 t3 t4 t3 t81 t13 t1 ||| t1 t3 t4 t3 t81 t13 t1 ||| 0.666667 0.0159984 0.5 0.0186259 2.718 ||| 0-0 1-1 2-2 3-3 4-4 5-5 6-6 ||| 3 4 2
t1 t3 t4 t30 t3 t17 t18 ||| t1 t3 t4 t30 t3 t17 t18 ||| 0.666667 0.0265914 0.5 0.0335957 2.718 ||| 0-0 1-1 2-2 3-3 4-4 5-5 6-6 ||| 3 4 2
t1 t3 t4 t30 t36 t3 t21 ||| t1 t3 t4 t30 t36 t3 t21 ||| 0.666667 0.0294348 1 0.0271852 2.718 ||| 0-0 1-1 2-2 3-3 4-4 5-5 6-6 ||| 3 2 2
t1 t3 t4 t30 t36 t3 ||| t1 t38 t4 t30 t36 t3 ||| 1 0.0220837 0.037037 0.000682185 2.718 ||| 0-0 1-1 2-2 3-3 4-4 5-5 ||| 2 54 2
t1 t3 t4 t30 t36 ||| t1 t38 t4 t30 t36 ||| 1 0.0291383 0.0338983 0.000917858 2.718 ||| 0-0 1-1 2-2 3-3 4-4 ||| 2 59 2
t1 t3 t4 t36 t3 t4 t2 ||| t1 t3 t4 t36 t3 t4 t1 ||| 0.166667 0.002726 0.666667 0.00310911 2.718 ||| 0-0 1-0 1-1 2-2 3-3 4-4 5-5 6-6 ||| 12 3 2
t1 t3 t4 t36 t3 t584 ||| t1 t3 t4 t36 t3 t26 ||| 0.0152672 8.40884e-05 1 0.027281 2.718 ||| 0-0 1-1 2-2 3-3 4-4 5-5 ||| 131 2 2
t1 t3 t4 t36 t36 t2 t3 ||| t1 t3 t4 t36 t36 t2 t3 ||| 0.666667 0.036139 0.666667 0.0245768 2.718 ||| 0-0 1-1 2-2 3-3 4-4 5-5 6-6 ||| 3 3 2
t1 t3 t4 t36 t36 t2 ||| t1 t3 t4 t36 t36 t2 ||| 0.666667 0.0476837 0.5 0.0330672 2.718 ||| 0-0 1-1 2-2 3-3 4-4 5-5 ||| 3 4 2
t1 t3 t4 t36 t36 t3 t21 ||| t1 t3 t4 t36 t36 t3 t21 ||| 0.75 0.0271935 0.75 0.0220159 2.718 ||| 0-0 1-1 2-2 3-3 4-4 5-5 6-6 ||| 4 4 3
t1 t3 t4 t36 t36 t3 t4 ||| t1 t3 t4 t36 t36 t3 t4 ||| 0.666667 0.0328869 0.666667 0.0306382 2.718 ||| 0-0 1-1 2-2 3-3 4-4 5-5 6-6 ||| 3 3 2
t1 t3 t4 t36 ||| t1 t3 t4 t36 t2 t723 t487 ||| 1 0.0879377 0.00505051 2.01501e-09 2.718 ||| 0-0 1-1 2-2 3-3 3-4 ||| 2 396 2
t1 t3 t4 t36 ||| t1 t3 t4 t36 t2 t723 ||| 1 0.0879377 0.00505051 4.9051e-06 2.718 ||| 0-0 1-1 2-2 3-3 3-4 ||| 2 396 2
t1 t3 t4 t43 t178 t179 t3 ||| t1 t3 t4 t43 t178 t179 t3 ||| 0.333333 0.0156202 0.666667 0.0142805 2.718 ||| 0-0 1-1 2-2 3-3 4-4 5-5 6-6 ||| 6 3 2
t1 t3 t4 t5 t36 ||| t1 t3 t4 t36 ||| 0.0035461 0.00013849 1 0.0742678 2.718 ||| 0-0 1-1 2-2 3-3 4-3 ||| 564 2 2
t1 t3 t40 t41 t33 t1 t3 ||| t1 t3 t40 t41 t33 t1 t3 ||| 1 0.00101734 0.4 0.00131591 2.718 ||| 0-0 1-1 2-2 3-3 4-4 5-5 6-6 ||| 2 5 2
t1 t3 t40 t41 t33 t1 ||| t1 t3 t40 t41 t33 t1 ||| 0.75 0.00134233 0.375 0.00177051 2.718 ||| 0-0 1-1 2-2 3-3 4-4 5-5 ||| 4 8 3
t1 t3 t404 t13 t1 t36 t3 ||| t1 t3 t404 t13 t1 t36 t3 ||| 1 0.0162832 0.666667 0.0206691 2.718 ||| 0-0 1-1 2-2 3-3 4-4 5-5 6-6 ||| 2 3 2
t1 t3 t404 t13 t1 t36 ||| t1 t3 t404 t13 t1 t36 ||| 1 0.0214849 0.666667 0.0278096 2.718 ||| 0-0 1-1 2-2 3-3 4-4 5-5 ||| 2 3 2
t1 t3 t404 t13 t1 ||| t1 t3 t404 t13 t1 ||| 0.4 0.0369679 1 0.0531365 2.718 ||| 0-0 1-1 2-2 3-3 4-4 ||| 5 2 2
t1 t3 t408 t33 t1 t3 t408 ||| t1 t3 t408 t33 t1 t3 t408 ||| 1 0.00323094 1 0.00286505 2.718 ||| 0-0 1-1 2-2 3-3 4-4 5-5 6-6 ||| 2 2 2
t1 t3 t408 t33 t1 t3 ||| t1 t3 t408 t33 t1 t3 ||| 0.666667 0.0114209 1 0.0114665 2.718 ||| 0-0 1-1 2-2 3-3 4-4 5-5 ||| 3 2 2
t1 t3 t408 t33 t1 ||| t1 t3 t408 t33 t1 ||| 0.6 0.0150693 1 0.0154278 2.718 ||| 0-0 1-1 2-2 3-3 4-4 ||| 5 3 3
t1 t3 t408 t33 ||| t1 t3 t408 t33 ||| 0.5 0.023119 1 0.0224263 2.718 ||| 0-0 1-1 2-2 3-3 ||| 6 3 3
t1 t3 t408 t72 t210 ||| t1 t3 t210 ||| 0.00628931 1.54941e-05 0.666667 0.0483715 2.718 ||| 0-0 1-1 2-2 3-2 4-2 ||| 318 3 2
t1 t3 t423 t1 t3 t20 ||| t1 t3 t423 t1 t3 t20 ||| 0.75 0.0454165 0.5 0.0548338 2.718 ||| 0-0 1-1 2-2 3-3 4-4 5-5 ||| 4 6 3
t1 t3 t423 t1 t36 t3 ||| t1 t3 t423 t1 t36 t3 ||| 0.666667 0.0498586 0.4 0.0566093 2.718 ||| 0-0 1-1 2-2 3-3 4-4 5-5 ||| 3 5 2
t1 t3 t423 t1 t36 ||| t1 t3 t423 t1 t36 ||| 0.666667 0.0657859 0.666667 0.076166 2.718 ||| 0-0 1-1 2-2 3-3 4-4 ||| 3 3 2
t1 t3 t44 t1 t3 t96 ||| t1 t3 t44 t1 t3 t96 ||| 0.5 0.0286281 1 0.0410661 2.718 ||| 0-0 1-1 2-2 3-3 4-4 5-5 ||| 4 2 2
t1 t3 t45 t168 ||| t1 t3 t27 ||| 0.00327332 5.98665e-05 0.666667 0.101284 2.718 ||| 0-0 1-1 2-2 3-2 ||| 611 3 2
t1 t3 t45 t23 t25 t44 ||| t1 t3 t45 t23 t25 t44 ||| 0.666667 0.0138349 0.5 0.0241608 2.718 ||| 0-0 1-1 2-2 3-3 4-4 5-5 ||| 3 4 2
t1 t3 t45 t23 t331 tco t1 ||| t1 t3 t45 t23 t331 tco t1 ||| 0.615385 0.0118042 0.666667 0.0203247 2.718 ||| 0-0 1-1 2-2 3-3 4-4 5-5 6-6 ||| 13 12 8
t1 t3 t45 t23 t36 t167 ||| t1 t3 t45 t23 t36 t167 ||| 1 0.0437187 1 0.0503544 2.718 ||| 0-0 1-1 2-2 3-3 4-4 5-5 ||| 2 2 2
t1 t3 t45 t23 t36 ||| t1 t3 t45 t23 t36 ||| 0.5 0.0931507 1 0.103756 2.718 ||| 0-0 1-1 2-2 3-3 4-4 ||| 4 2 2
t1 t3 t45 t23 t50 t13 t2 ||| t1 t3 t45 t23 t50 t13 t2 ||| 0.4 0.0118051 1 0.0122127 2.718 ||| 0-0 1-1 2-2 3-3 4-4 5-5 6-6 ||| 5 2 2
t1 t3 t45 t23 t50 t31 ||| t1 t3 t45 t23 t50 t31 ||| 0.666667 0.0306489 1 0.0390153 2.718 ||| 0-0 1-1 2-2 3-3 4-4 5-5 ||| 3 2 2
t1 t3 t45 t23 t50 t52 t53 ||| t1 t3 t45 t23 t50 t52 t53 ||| 0.5 0.00544922 0.666667 0.00558252 2.718 ||| 0-0 1-1 2-2 3-3 4-4 5-5 6-6 ||| 4 3 2
t1 t3 t45 t23 t50 t74 ||| t1 t3 t45 t23 t50 t74 ||| 0.5 0.0298749 0.666667 0.0376233 2.718 ||| 0-0 1-1 2-2 3-3 4-4 5-5 ||| 4 3 2
t1 t3 t45 t24 t23 t46 t26 ||| t1 t3 t45 t24 t23 t46 t26 ||| 0.666667 0.0201705 1 0.0330747 2.718 ||| 0-0 1-1 2-2 3-3 4-4 5-5 6-6 ||| 3 2 2
t1 t3 t45 t24 t23 t46 ||| t1 t3 t45 t24 t23 t46 ||| 0.666667 0.0237402 1 0.035346 2.718 ||| 0-0 1-1 2-2 3-3 4-4 5-5 ||| 3 2 2
t1 t3 t45 t24 t23 ||| t1 t2 t3 t48 t45 t24 t23 ||| 1 0.0233539 0.105263 4.57104e-06 2.718 ||| 0-0 0-1 1-2 1-3 2-4 3-5 4-6 ||| 4 38 4
t1 t3 t45 t24 ||| t1 t2 t3 t48 t45 t24 ||| 1 0.0392397 0.040404 7.48708e-06 2.718 ||| 0-0 0-1 1-2 1-3 2-4 3-5 ||| 4 99 4
t1 t3 t45 t27 t1 t3 t26 ||| t1 t3 t45 t27 t1 t3 t26 ||| 0.666667 0.0454459 0.8 0.0701144 2.718 ||| 0-0 1-1 2-2 3-3 4-4 5-5 6-6 ||| 6 5 4
t1 t3 t45 t27 t1 t3 t4 ||| t1 t3 t45 t27 t1 t3 t4 ||| 0.5 0.0272769 0.777778 0.0406521 2.718 ||| 0-0 1-1 2-2 3-3 4-4 5-5 6-6 ||| 14 9 7
t1 t3 t45 t27 t1 ||| t3 t1 t3 t45 t27 t1 ||| 1 0.0705756 0.031746 0.0103059 2.718 ||| 0-1 1-2 2-3 3-4 4-5 ||| 2 63 2
t1 t3 t45 t27 t29 t76 t77 ||| t1 t3 t45 t27 t29 t76 t77 ||| 0.666667 0.0148104 1 0.0328218 2.718 ||| 0-0 1-1 2-2 3-3 4-4 5-5 6-6 ||| 3 2 2
t1 t3 t45 t27 t29 t76 ||| t1 t3 t45 t27 t29 t76 ||| 1 0.03221 1 0.0579732 2.718 ||| 0-0 1-1 2-2 3-3 4-4 5-5 ||| 2 2 2
t1 t3 t45 t27 t30 t3 t26 ||| t1 t3 t45 t27 t30 t3 t26 ||| 0.666667 0.0438605 0.5 0.0658659 2.718 ||| 0-0 1-1 2-2 3-3 4-4 5-5 6-6 ||| 3 4 2
t1 t3 t45 t27 ||| t3 t1 t3 t45 t27 ||| 0.666667 0.108275 0.0120482 0.0149809 2.718 ||| 0-1 1-2 2-3 3-4 ||| 3 166 2
t1 t3 t45 t28 t74 ||| t1 t3 t45 t28 t74 ||| 0.25 0.075197 0.666667 0.0936728 2.718 ||| 0-0 1-1 2-2 3-3 4-4 ||| 8 3 2
t1 t3 t45 t49 t23 t50 t26 ||| t1 t3 t45 t49 t23 t50 t26 ||| 0.333333 0.0298843 1 0.0505245 2.718 ||| 0-0 1-1 2-2 3-3 4-4 5-5 6-6 ||| 9 3 3
t1 t3 t45 t49 t23 t50 ||| t1 t3 t45 t49 t23 t50 ||| 0.25 0.035173 0.714286 0.0539941 2.718 ||| 0-0 1-1 2-2 3-3 4-4 5-5 ||| 20 7 5
t1 t3 t45 t49 t81 t74 ||| t1 t3 t45 t49 t81 t74 ||| 1 0.032631 1 0.0450122 2.718 ||| 0-0 1-1 2-2 3-3 4-4 5-5 ||| 2 2 2
t1 t3 t45 t509 ||| t1 t3 t45 t509 ||| 0.666667 0.0807915 0.5 0.0726986 2.718 ||| 0-0 1-1 2-2 3-3 ||| 3 4 2
t1 t3 t45 t57 tco t1 t3 ||| t1 t3 t45 t57 tco t1 t3 ||| 0.285714 0.0166775 0.666667 0.0240589 2.718 ||| 0-0 1-1 2-2 3-3 4-4 5-5 6-6 ||| 7 3 2
t1 t3 t45 ||| t1 t2 t3 t48 t45 ||| 1 0.0894638 0.00674916 1.86815e-05 2.718 ||| 0-0 0-1 1-2 1-3 2-4 ||| 6 889 6
t1 t3 t464 tco t3 ||| t1 t3 t464 tco t3 ||| 1 0.0282302 1 0.0280469 2.718 ||| 0-0 1-1 2-2 3-3 4-4 ||| 2 2 2
t1 t3 t464 tco ||| t1 t3 t464 tco ||| 0.75 0.0372483 0.5 0.0377362 2.718 ||| 0-0 1-1 2-2 3-3 ||| 4 6 3
t1 t3 t471 t137 ||| t1 t3 t154 t137 ||| 0.666667 0.000803535 0.4 0.0367274 2.718 ||| 0-0 1-1 2-2 3-3 ||| 3 5 2
t1 t3 t484 ||| t1 t207 t92 t38 t484 ||| 1 0.0224274 0.00566572 2.14504e-08 2.718 ||| 0-0 1-1 2-2 2-3 2-4 ||| 2 353 2
t1 t3 t490 t481 t26 ||| t1 t3 t490 t481 t26 ||| 0.571429 0.0407381 0.8 0.0230826 2.718 ||| 0-0 1-1 2-2 3-3 4-4 ||| 7 5 4
t1 t3 t490 ||| t1 t3 t490 ||| 0.615385 0.148202 0.571429 0.0807308 2.718 ||| 0-0 1-1 2-2 ||| 13 14 8
t1 t3 t51 tco t1 t3 t4 ||| t1 t3 t51 tco t1 t3 t4 ||| 1 0.0152139 0.75 0.0164596 2.718 ||| 0-0 1-1 2-2 3-3 4-4 5-5 6-6 ||| 3 4 3
t1 t3 t51 tco t30 t3 ||| t1 t3 t4 t30 t3 ||| 0.00549451 2.82906e-05 0.666667 0.0198737 2.718 ||| 0-0 1-1 2-2 3-2 4-3 5-4 ||| 364 3 2
t1 t3 t51 tco t30 ||| t1 t3 t4 t30 ||| 0.00438596 3.7328e-05 1 0.0267394 2.718 ||| 0-0 1-1 2-2 3-2 4-3 ||| 456 2 2
t1 t3 t536 t446 ||| t1 t3 t536 t446 ||| 0.666667 0.00946096 1 0.0119757 2.718 ||| 0-0 1-1 2-2 3-3 ||| 3 2 2
t1 t3 t536 ||| t1 t3 t536 ||| 0.666667 0.0541377 1 0.0705235 2.718 ||| 0-0 1-1 2-2 ||| 3 2 2
t1 t3 t569 t20 t29 ||| t1 t3 t569 t20 t29 ||| 0.25 0.0449117 0.666667 0.0672468 2.718 ||| 0-0 1-1 2-2 3-3 4-4 ||| 8 3 2
t1 t3 t569 t20 ||| t1 t3 t569 t20 ||| 0.166667 0.0693044 0.666667 0.0934528 2.718 ||| 0-0 1-1 2-2 3-3 ||| 12 3 2
t1 t3 t60 t2 t3 ||| t1 t3 t60 t2 t3 ||| 0.4 0.0595958 0.666667 0.0464792 2.718 ||| 0-0 1-1 2-2 3-3 4-4 ||| 5 3 2
t1 t3 t60 t2 ||| t1 t3 t60 t2 ||| 0.285714 0.0786337 1 0.0625362 2.718 ||| 0-0 1-1 2-2 3-3 ||| 7 2 2
t1 t3 t62 t2 t3 t63 t26 ||| t1 t3 t62 t5 t3 t63 t26 ||| 0.222222 0.00467649 1 0.000492884 2.718 ||| 0-0 1-1 2-2 3-3 4-4 5-5 6-6 ||| 9 2 2
t1 t3 t62 t2 t3 t63 ||| t1 t3 t62 t5 t3 t63 ||| 0.153846 0.0055041 1 0.000526732 2.718 ||| 0-0 1-1 2-2 3-3 4-4 5-5 ||| 13 2 2
t1 t3 t62 t2 t3 ||| t1 t3 t62 t5 t3 ||| 0.166667 0.0120302 1 0.00121134 2.718 ||| 0-0 1-1 2-2 3-3 4-4 ||| 12 2 2
t1 t3 t62 t2 ||| t1 t3 t62 t5 ||| 0.0952381 0.0158732 1 0.00162982 2.718 ||| 0-0 1-1 2-2 3-3 ||| 21 2 2
t1 t3 t62 t29 t81 t26 ||| t1 t3 t26 ||| 0.000239636 2.80674e-08 0.666667 0.173068 2.718 ||| 0-0 1-1 2-2 4-2 5-2 ||| 8346 3 2
t1 t3 t620 t824 t26 ||| t1 t3 t26 ||| 0.000239636 2.6156e-07 0.666667 0.24653 2.718 ||| 0-0 1-1 2-2 3-2 4-2 ||| 8346 3 2
t1 t3 t63 t69 t26 ||| t1 t3 t63 t69 t26 ||| 1 0.0680373 0.666667 0.0711484 2.718 ||| 0-0 1-1 2-2 3-3 4-4 ||| 2 3 2
t1 t3 t63 t69 ||| t1 t3 t63 t69 ||| 1 0.0800782 0.5 0.0760344 2.718 ||| 0-0 1-1 2-2 3-3 ||| 2 4 2
t1 t3 t64 t13 t1 t3 t23 ||| t1 t3 t64 t13 t1 t3 t23 ||| 0.666667 0.0139143 0.666667 0.0115543 2.718 ||| 0-0 1-1 2-2 3-3 4-4 5-5 6-6 ||| 3 3 2
t1 t3 t64 t13 t2 t3 ||| t1 t3 t64 t13 t2 t3 ||| 0.333333 0.0200996 0.666667 0.00604802 2.718 ||| 0-0 1-0 1-1 2-2 3-3 4-4 5-5 ||| 6 3 2
t1 t3 t64 t13 t2 ||| t1 t3 t64 t13 t2 ||| 0.4 0.0265204 0.666667 0.00813742 2.718 ||| 0-0 1-0 1-1 2-2 3-3 4-4 ||| 5 3 2
t1 t3 t64 t13 t3 t48 ||| t1 t3 t64 t13 t3 t48 ||| 0.666667 0.0177969 0.5 0.0139931 2.718 ||| 0-0 1-1 2-2 3-3 4-4 5-5 ||| 3 4 2
t1 t3 t64 t2 t65 t48 t3024 ||| t1 t3 t187 t2 t65 t48 t3024 ||| 0.333333 0.000116136 1 0.000176904 2.718 ||| 0-0 1-1 2-2 3-3 4-4 5-5 6-6 ||| 6 2 2
t1 t3 t64 t2 t65 t48 ||| t1 t3 t187 t2 t65 t48 ||| 0.428571 0.000354072 0.75 0.000565231 2.718 ||| 0-0 1-1 2-2 3-3 4-4 5-5 ||| 7 4 3
t1 t3 t64 t2 t65 ||| t1 t3 t187 t2 t65 ||| 0.428571 0.000713592 1 0.00111124 2.718 ||| 0-0 1-1 2-2 3-3 4-4 ||| 7 3 3
t1 t3 t64 t31 t59 ||| t1 t3 t31 t59 ||| 0.0298507 4.03207e-05 0.666667 0.03435 2.718 ||| 0-0 1-1 2-1 3-2 4-3 ||| 67 3 2
t1 t3 t64 t45 t23 ||| t1 t3 t45 t23 ||| 0.0056338 8.21272e-05 0.666667 0.111289 2.718 ||| 0-0 1-1 2-1 3-2 4-3 ||| 355 3 2
t1 t3 t678 t4706 tco t26 ||| t1 t3 t23 t117 tco t26 ||| 0.222222 1.31019e-05 1 0.00502108 2.718 ||| 0-0 1-1 2-2 3-3 4-4 5-5 ||| 9 2 2
t1 t3 t678 t4706 tco ||| t1 t3 t23 t117 tco ||| 0.25 1.54206e-05 1 0.0053659 2.718 ||| 0-0 1-1 2-2 3-3 4-4 ||| 12 3 3
t1 t3 t678 t4706 ||| t1 t3 t23 t117 ||| 0.333333 3.34662e-05 1 0.0121925 2.718 ||| 0-0 1-1 2-2 3-3 ||| 9 3 3
t1 t3 t678 t49 ||| t1 t3 t23 t49 ||| 0.00749064 0.000841527 0.666667 0.0735935 2.718 ||| 0-0 1-1 2-2 3-3 ||| 267 3 2
t1 t3 t69 t195 ||| t1 t3 t69 t195 ||| 0.4 0.0529145 0.666667 0.0478561 2.718 ||| 0-0 1-1 2-2 3-3 ||| 5 3 2
t1 t3 t69 t26 ||| t1 t3 t69 t210 ||| 1 0.0566531 0.0105263 0.00411648 2.718 ||| 0-0 1-1 2-2 3-3 ||| 2 190 2
t1 t3 t69 t76 t77 t29 ||| t1 t3 t69 t77 t29 ||| 0.666667 0.00243434 0.4 0.037978 2.718 ||| 0-0 1-1 2-2 3-3 4-3 5-4 ||| 3 5 2
t1 t3 t697 t1 ||| t1 t3 t697 t1 ||| 0.666667 0.0773145 0.5 0.0896583 2.718 ||| 0-0 1-1 2-2 3-3 ||| 3 4 2
t1 t3 t71 t321 t23 ||| t1 t3 t23 ||| 0.000857633 1.11361e-06 1 0.0876063 2.718 ||| 0-0 1-1 2-1 3-2 4-2 ||| 2332 2 2
t1 t3 t71 t69 t69 ||| t1 t3 t69 ||| 0.00692042 0.00144286 0.666667 0.131858 2.718 ||| 0-0 1-1 2-2 3-2 4-2 ||| 289 3 2
t1 t3 t71 tco t26 ||| t1 t3 t71 t69 t26 ||| 0.0769231 0.00816449 1 0.00309692 2.718 ||| 0-0 1-1 2-2 3-3 4-4 ||| 26 2 2
t1 t3 t74 t1 ||| t1 t3 t4 t1 t3 t74 t1 ||| 0.75 0.181778 0.0555556 0.00463068 2.718 ||| 0-0 1-1 0-3 1-4 2-5 3-6 ||| 4 54 3
t1 t3 t74 t31 t23 ||| t1 t3 t74 t29 t23 ||| 0.0289855 0.000665885 1 0.00383855 2.718 ||| 0-0 1-1 2-2 3-3 4-4 ||| 69 2 2
t1 t3 t74 t31 ||| t1 t3 t74 t29 ||| 0.0111111 0.00111883 1 0.0062873 2.718 ||| 0-0 1-1 2-2 3-3 ||| 180 2 2
t1 t3 t76 t26 ||| t1 t3 t76 ||| 0.0034662 0.0149704 0.666667 0.142476 2.718 ||| 0-0 1-1 2-2 3-2 ||| 577 3 2
t1 t3 t76 t76 t77 t29 t23 ||| t1 t3 t76 t77 t29 t23 ||| 0.0571429 0.0184615 0.666667 0.0699127 2.718 ||| 0-0 1-1 2-2 3-2 4-3 5-4 6-5 ||| 35 3 2
t1 t3 t76 t76 t77 t29 ||| t1 t3 t76 t77 t29 ||| 0.0316456 0.0310194 0.714286 0.114513 2.718 ||| 0-0 1-1 2-2 3-2 4-3 5-4 ||| 158 7 5
t1 t3 t76 t77 t154 ||| t1 t3 t76 t77 t154 ||| 0.333333 0.0635357 1 0.108831 2.718 ||| 0-0 1-1 2-2 3-3 4-4 ||| 9 3 3
t1 t3 t76 t77 t29 t28 ||| t1 t3 t76 t77 t29 t23 t28 ||| 0.666667 0.0334228 0.222222 0.00405374 2.718 ||| 0-0 1-1 2-2 3-3 4-4 5-5 5-6 ||| 3 9 2
t1 t3 t76 t77 t3 t45 t49 ||| t1 t3 t76 t77 t3 t45 t49 ||| 0.5 0.0286336 1 0.0591395 2.718 ||| 0-0 1-1 2-2 3-3 4-4 5-5 6-6 ||| 4 2 2
t1 t3 t76 t77 t327 t23 ||| t1 t3 t76 t77 t327 t23 ||| 0.666667 0.0246032 0.666667 0.0456011 2.718 ||| 0-0 1-1 2-2 3-3 4-4 5-5 ||| 3 3 2
t1 t3 t76 t77 t327 ||| t1 t3 t76 t77 t327 ||| 0.666667 0.0413389 0.666667 0.0746918 2.718 ||| 0-0 1-1 2-2 3-3 4-4 ||| 3 3 2
t1 t3 t77 t1 t3 t81 ||| t1 t3 t76 t77 t1 t3 t81 ||| 0.5 0.0201929 1 0.00458809 2.718 ||| 0-0 1-1 2-2 2-3 3-4 4-5 5-6 ||| 4 2 2
t1 t3 t77 t31 t1688 t30 ||| t1 t3 t77 t31 t525 tco t1 ||| 1 8.1011e-05 1 0.00118682 2.718 ||| 0-0 1-1 2-2 3-3 4-4 4-5 5-6 ||| 2 2 2
t1 t3 t77 t31 t1688 ||| t1 t3 t77 t31 t525 tco ||| 1 0.00248938 1 0.00816583 2.718 ||| 0-0 1-1 2-2 3-3 4-4 4-5 ||| 2 2 2
t1 t3 t77 t31 ||| t1 t3 t77 t31 ||| 1 0.131553 1 0.164677 2.718 ||| 0-0 1-1 2-2 3-3 ||| 2 2 2
t1 t3 t81 t197 t26 ||| t1 t3 t81 t26 ||| 0.0194175 0.000129337 0.666667 0.106447 2.718 ||| 0-0 1-1 2-2 3-2 4-3 ||| 103 3 2
t1 t3 t81 t69 t76 t77 t29 ||| t1 t3 t81 t69 t76 t77 t29 ||| 1 0.00773132 1 0.012569 2.718 ||| 0-0 1-1 2-2 3-3 4-4 5-5 6-6 ||| 2 2 2
t1 t3 t81 t76 t77 t113 ||| t1 t3 t81 t76 t77 t113 ||| 1 0.0141149 0.666667 0.0159826 2.718 ||| 0-0 1-1 2-2 3-3 4-4 5-5 ||| 2 3 2
t1 t3 t83 t29 t44 ||| t1 t3 t27 t29 t44 ||| 1 0.00163448 0.5 0.0353221 2.718 ||| 0-0 1-1 2-2 3-3 4-4 ||| 2 4 2
t1 t3 t83 t30 t3 tco ||| t1 t3 t27 t30 t3 t13 ||| 0.285714 0.0006993 1 0.00534394 2.718 ||| 0-0 1-1 2-2 3-3 4-4 5-5 ||| 7 2 2
t1 t3 t84 t103 ||| t1 t3 t84 t103 ||| 1 0.0538867 1 0.0336478 2.718 ||| 0-0 1-1 2-2 3-3 ||| 2 2 2
t1 t3 t84 t111 ||| t1 t3 t84 t111 ||| 0.285714 0.0238951 0.666667 0.0207318 2.718 ||| 0-0 1-1 2-2 3-3 ||| 7 3 2
t1 t3 t84 t27 t1 ||| t1 t3 t84 t27 t1 ||| 0.666667 0.0299629 0.666667 0.0255833 2.718 ||| 0-0 1-1 2-2 3-3 4-4 ||| 3 3 2
t1 t3 t96 t242 tco t1 t3 ||| t1 t3 t96 t242 tco t1 t3 ||| 0.285714 0.011636 0.666667 0.0133433 2.718 ||| 0-0 1-1 2-2 3-3 4-4 5-5 6-6 ||| 7 3 2
t1 t3 t96 t346 t1 t3 ||| t1 t3 t96 t346 t1 t3 ||| 0.666667 0.0361374 0.666667 0.0328753 2.718 ||| 0-0 1-1 2-2 3-3 4-4 5-5 ||| 3 3 2
t1 t3 t96 t346 t1 ||| t1 t3 t96 t346 t1 ||| 0.666667 0.0476816 0.5 0.0442326 2.718 ||| 0-0 1-1 2-2 3-3 4-4 ||| 3 4 2
t1 t3 t96 t374 t69 t13 t1 ||| t1 t3 t96 t242 tco t1 ||| 0.125 1.84007e-05 1 0.000530963 2.718 ||| 0-0 1-1 2-2 3-3 4-4 5-4 6-5 ||| 16 2 2
t1 t3 t96 t374 t69 t13 ||| t1 t3 t96 t242 tco ||| 0.0588235 2.82298e-05 0.666667 0.000771825 2.718 ||| 0-0 1-1 2-2 3-3 4-4 5-4 ||| 34 3 2
t1 t3 t96 t813 t29 t1 ||| t1 t3 t96 t813 t29 t1 ||| 0.666667 0.0241273 0.4 0.0351892 2.718 ||| 0-0 1-1 2-2 3-3 4-4 5-5 ||| 3 5 2
t1 t3 t96 t813 t29 ||| t1 t3 t96 t813 t29 ||| 0.666667 0.0370154 0.4 0.0511522 2.718 ||| 0-0 1-1 2-2 3-3 4-4 ||| 3 5 2
t1 t3 t96 t813 ||| t1 t3 t96 t813 ||| 0.666667 0.0571195 0.4 0.0710862 2.718 ||| 0-0 1-1 2-2 3-3 ||| 3 5 2
t1 t3 t96 t97 t1 t2 t3 ||| t1 t3 t96 t97 t1 t2 t3 ||| 0.5 0.0193437 0.666667 0.0153002 2.718 ||| 0-0 1-1 2-2 3-3 4-4 5-5 6-6 ||| 4 3 2
t1 t3 t96 t97 t1 t2 ||| t1 t3 t96 t97 t1 t2 ||| 0.5 0.0255231 0.666667 0.020586 2.718 ||| 0-0 1-1 2-2 3-3 4-4 5-5 ||| 4 3 2
t1 t3 t98 t109 t69 ||| t1 t3 t98 t109 t69 ||| 0.333333 0.0228434 0.666667 0.0274632 2.718 ||| 0-0 1-1 2-2 3-3 4-4 ||| 6 3 2
t1 t3 t98 t23 t23 ||| t1 t3 t98 t23 t23 ||| 0.5 0.107788 0.666667 0.127003 2.718 ||| 0-0 1-1 2-2 3-3 4-4 ||| 4 3 2
t1 t3 t98 t23 t99 t1 t3 ||| t1 t3 t98 t99 t1 t3 ||| 0.117647 0.00305611 0.666667 0.0298911 2.718 ||| 0-0 1-1 2-2 3-3 4-3 5-4 6-5 ||| 17 3 2
t1 t3 t98 t23 t99 t29 t26 ||| t1 t3 t98 t99 t29 t26 ||| 0.166667 0.00340618 0.666667 0.0393645 2.718 ||| 0-0 1-1 2-2 3-3 4-3 5-4 6-5 ||| 12 3 2
t1 t3 t98 t23 t99 t29 ||| t1 t3 t98 t99 t29 ||| 0.0689655 0.00400898 0.666667 0.0420678 2.718 ||| 0-0 1-1 2-2 3-3 4-3 5-4 ||| 29 3 2
t1 t3 t98 t23 ||| t1 t38 t98 t23 ||| 1 0.0572955 0.0555556 0.00203509 2.718 ||| 0-0 1-1 2-2 3-3 ||| 2 36 2
t1 t3 t98 t45 t49 t99 t30 ||| t1 t3 t98 t23 t49 t99 t30 ||| 0.666667 0.0014548 1 0.0065519 2.718 ||| 0-0 1-1 2-2 3-3 4-4 5-5 6-6 ||| 3 2 2
t1 t3 t98 t45 t49 t99 ||| t1 t3 t98 t23 t49 t99 ||| 0.4 0.00231259 1 0.0101384 2.718 ||| 0-0 1-1 2-2 3-3 4-4 5-5 ||| 5 2 2
t1 t3 t98 t45 t49 ||| t1 t3 t98 t23 t49 ||| 0.1875 0.00657189 0.75 0.0296283 2.718 ||| 0-0 1-1 2-2 3-3 4-4 ||| 16 4 3
t1 t3 t98 t99 t29 t26 ||| t1 t3 t98 t99 t29 t26 ||| 0.25 0.0589579 0.75 0.0785063 2.718 ||| 0-0 1-1 2-2 3-3 4-4 5-5 ||| 12 4 3
t1 t3 t98 t99 t30 t3 t26 ||| t1 t3 t98 t99 t30 t3 t26 ||| 0.666667 0.0433765 0.8 0.0524023 2.718 ||| 0-0 1-1 2-2 3-3 4-4 5-5 6-6 ||| 6 5 4
t1 t3 tco t1 t3 t154 ||| t1 t3 tco t1 t3 t154 ||| 1 0.0685184 0.666667 0.0786813 2.718 ||| 0-0 1-1 2-2 3-3 4-4 5-5 ||| 2 3 2
t1 t3 tco t1 t3 t20 t29 ||| t1 t3 tco t1 t3 t20 t29 ||| 0.75 0.0385781 0.75 0.0419695 2.718 ||| 0-0 1-1 2-2 3-3 4-4 5-5 6-6 ||| 4 4 3
t1 t3 tco t1 t3 t20 ||| t1 t3 tco t1 t3 t20 ||| 1 0.0595308 0.428571 0.0583249 2.718 ||| 0-0 1-1 2-2 3-3 4-4 5-5 ||| 3 7 3
t1 t3 tco t1 t36 t2 t3 ||| t1 t3 tco t1 t36 t3 ||| 0.0408163 0.00729785 0.666667 0.0364953 2.718 ||| 0-0 1-1 2-2 3-3 4-4 5-4 6-5 ||| 49 3 2
t1 t3 tco t1 t36 t2 ||| t1 t3 tco t1 t36 ||| 0.04 0.00962915 0.666667 0.0491032 2.718 ||| 0-0 1-1 2-2 3-3 4-4 5-4 ||| 50 3 2
t1 t3 tco t20 t29 ||| t1 t3 t20 t29 ||| 0.00533333 0.0076206 1 0.186515 2.718 ||| 0-0 1-1 3-2 4-3 ||| 375 2 2
t1 t3 tco t20 ||| t1 t3 t20 ||| 0.00273973 0.0117595 0.75 0.259199 2.718 ||| 0-0 1-1 3-2 ||| 1095 4 3
t1 t3 tco t31 ||| t1 t3 t31 ||| 0.00318979 0.00871644 0.666667 0.150014 2.718 ||| 0-0 1-1 2-2 3-2 ||| 627 3 2
t1 t3 tco t71 t69 ||| t1 t3 t71 t69 ||| 0.037037 0.00115442 0.666667 0.0201195 2.718 ||| 0-0 1-1 2-2 3-2 4-3 ||| 54 3 2
t1 t3 tco t71 ||| t1 t3 t71 ||| 0.0384615 0.00325834 0.666667 0.0588304 2.718 ||| 0-0 1-1 2-2 3-2 ||| 52 3 2
t1 t3 tco t76 ||| t1 t3 tco t76 ||| 0.666667 0.104494 0.133333 0.123705 2.718 ||| 0-0 1-1 2-2 3-3 ||| 3 15 2
t1 t3 tco ||| t1 t3 t1099 tco ||| 0.666667 0.20203 0.00276625 0.000118563 2.718 ||| 0-0 1-1 2-2 2-3 ||| 3 723 2
t1 t3 ||| t1 t2 t3 t38 ||| 0.666667 0.178469 0.000121403 8.89875e-05 2.718 ||| 0-0 0-1 1-2 1-3 ||| 6 32948 4
t1 t3 ||| t1 t2 t65 t48 ||| 0.75 0.0686144 9.10526e-05 1.29869e-07 2.718 ||| 0-0 0-1 1-2 1-3 ||| 4 32948 3
t1 t3 ||| t1 t3 ||| 0.564 0.494007 0.627474 0.511295 2.718 ||| 0-0 1-1 ||| 36656 32948 20674
t1 t3 ||| t1 t312 ||| 0.625 0.234846 0.000151754 0.00040815 2.718 ||| 0-0 1-1 ||| 8 32948 5
t1 t3 ||| t649 t29 t20 t1 t3 ||| 0.666667 0.494007 6.07017e-05 1.15173e-07 2.718 ||| 0-3 1-4 ||| 3 32948 2
t1 t30 t36 ||| t1 t30 t36 ||| 0.625 0.238308 0.357143 0.232672 2.718 ||| 0-0 1-1 2-2 ||| 8 14 5
t1 t305 t167 t26 ||| t1 t36 t167 t26 ||| 0.00380952 0.000209703 1 0.0128145 2.718 ||| 0-0 1-1 2-2 3-3 ||| 525 2 2
t1 t305 t167 ||| t1 t36 t167 ||| 0.001386 0.000246815 1 0.0136946 2.718 ||| 0-0 1-1 2-2 ||| 1443 2 2
t1 t355 t20 t3 ||| t1 t355 t20 t3 ||| 0.666667 0.101044 0.666667 0.107912 2.718 ||| 0-0 1-1 2-2 3-3 ||| 3 3 2
t1 t355 t20 ||| t1 t355 t20 ||| 0.5 0.133323 0.666667 0.145192 2.718 ||| 0-0 1-1 2-2 ||| 32 24 16
t1 t36 t1 t3 t4 ||| t1 t36 t1 t3 t4 ||| 1 0.0954334 0.4 0.0998733 2.718 ||| 0-0 1-1 2-2 3-3 4-4 ||| 2 5 2
t1 t36 t167 t210 ||| t1 t36 t167 t26 ||| 0.00380952 0.00495261 0.666667 0.0530265 2.718 ||| 0-0 1-1 2-2 3-3 ||| 525 3 2
t1 t36 t167 t232 tco t1 t3 ||| t1 t36 t167 t4 t1 t3 ||| 0.0246914 7.15877e-06 1 0.0147294 2.718 ||| 0-0 1-1 2-2 3-3 4-3 5-4 6-5 ||| 81 2 2
t1 t36 t167 t232 tco t1 ||| t1 t36 t167 t4 t1 ||| 0.0204082 9.44564e-06 0.666667 0.019818 2.718 ||| 0-0 1-1 2-2 3-3 4-3 5-4 ||| 98 3 2
t1 t36 t167 t232 tco ||| t1 t36 t167 t4 ||| 0.00660066 1.44912e-05 0.666667 0.0288081 2.718 ||| 0-0 1-1 2-2 3-3 4-3 ||| 303 3 2
t1 t36 t167 t31 t328 ||| t1 t36 t167 t31 t328 ||| 0.2 0.0282271 1 0.0283437 2.718 ||| 0-0 1-1 2-2 3-3 4-4 ||| 10 2 2
t1 t36 t167 t31 t534 t74 ||| t1 t36 t167 t31 t534 t74 ||| 1 0.0145322 1 0.00848269 2.718 ||| 0-0 1-1 2-2 3-3 4-4 5-5 ||| 2 2 2
t1 t36 t167 t31 t534 ||| t1 t36 t167 t31 t534 ||| 1 0.0257423 0.5 0.0154626 2.718 ||| 0-0 1-1 2-2 3-3 4-4 ||| 4 8 4
t1 t36 t167 t4 t1 t3 t163 ||| t1 t36 t167 t4 t1 t3 t163 ||| 0.5 0.0163927 1 0.01428 2.718 ||| 0-0 1-1 2-2 3-3 4-4 5-5 6-6 ||| 4 2 2
t1 t36 t167 t4 t3 t98 ||| t1 t36 t167 t4 t3 t98 ||| 0.333333 0.0423276 1 0.0469531 2.718 ||| 0-0 1-1 2-2 3-3 4-4 5-5 ||| 6 2 2
t1 t36 t167 t60 t29 ||| t1 t36 t167 t60 t29 ||| 1 0.0327268 0.5 0.035336 2.718 ||| 0-0 1-1 2-2 3-3 4-4 ||| 2 4 2
t1 t36 t167 t69 t76 t77 ||| t1 t36 t167 t69 t76 t77 ||| 1 0.013296 0.5 0.018599 2.718 ||| 0-0 1-1 2-2 3-3 4-4 5-5 ||| 2 4 2
t1 t36 t167 t69 t76 ||| t1 t36 t167 t69 t76 ||| 1 0.0289165 0.5 0.0328514 2.718 ||| 0-0 1-1 2-2 3-3 4-4 ||| 2 4 2
t1 t36 t167 t74 t1 ||| t1 t36 t167 t74 t1 ||| 0.666667 0.065422 0.666667 0.0659426 2.718 ||| 0-0 1-1 2-2 3-3 4-4 ||| 3 3 2
t1 t36 t167 t74 t29 t31 ||| t1 t36 t3 t31 ||| 0.016129 1.31448e-06 0.666667 0.0129009 2.718 ||| 0-0 1-1 2-2 3-3 4-3 5-3 ||| 124 3 2
t1 t36 t167 t76 t77 t29 t23 ||| t1 t36 t167 t76 t77 t29 t23 ||| 0.222222 0.0144739 0.666667 0.0238921 2.718 ||| 0-0 1-1 2-2 3-3 4-4 5-5 6-6 ||| 9 3 2
t1 t36 t167 t76 t77 t3 ||| t1 t2 t167 t76 t77 t3 ||| 1 0.00572373 0.2 0.00635202 2.718 ||| 0-0 1-1 2-2 3-3 4-4 5-5 ||| 2 10 2
t1 t36 t167 t77 t29 t23 ||| t1 t36 t167 t76 t77 t29 t23 ||| 0.222222 0.0175696 0.666667 0.00419767 2.718 ||| 0-0 1-1 2-2 3-3 3-4 4-5 5-6 ||| 9 3 2
t1 t36 t167 t77 t29 ||| t1 t36 t167 t76 t77 t29 ||| 0.2 0.0295209 0.8 0.00687553 2.718 ||| 0-0 1-1 2-2 3-3 3-4 4-5 ||| 20 5 4
t1 t36 t167 ||| t1 t103 t228 t167 ||| 0.666667 0.0418582 0.00154321 1.7239e-06 2.718 ||| 0-0 1-1 1-2 2-3 ||| 3 1296 2
t1 t36 t173 t2 t3 t26 ||| t1 t36 t173 t2 t3 t26 ||| 0.666667 0.0301753 0.25 0.0187263 2.718 ||| 0-0 1-1 2-2 3-3 4-4 5-5 ||| 3 8 2
t1 t36 t173 t2 t3 ||| t1 t36 t173 t2 t3 ||| 0.666667 0.0355155 0.153846 0.0200123 2.718 ||| 0-0 1-1 2-2 3-3 4-4 ||| 3 13 2
t1 t36 t176 t3 ||| t1 t36 t3 ||| 0.000217936 3.19548e-05 1 0.147615 2.718 ||| 0-0 1-1 2-1 3-2 ||| 9177 2 2
t1 t36 t176 ||| t1 t36 ||| 0.000156605 4.21628e-05 1 0.198611 2.718 ||| 0-0 1-1 2-1 ||| 12771 2 2
t1 t36 t186 t46 ||| t1002 t305 t46 ||| 0.0454545 8.62715e-05 0.666667 6.24857e-06 2.718 ||| 0-0 1-1 2-1 3-2 ||| 44 3 2
t1 t36 t1920 ||| t1 t36 t1920 ||| 0.25 0.0445672 0.666667 0.0439069 2.718 ||| 0-0 1-1 2-2 ||| 8 3 2
t1 t36 t2 t11 t3 ||| t1 t36 t2 t3 ||| 0.00264901 0.00114061 1 0.0750907 2.718 ||| 0-0 1-1 2-2 3-2 4-3 ||| 755 2 2
t1 t36 t2 t11 ||| t1 t36 t2 ||| 0.00208333 0.00150498 1 0.101032 2.718 ||| 0-0 1-1 2-2 3-2 ||| 960 2 2
t1 t36 t2 t3 t21 t38 t26 ||| t1 t36 t3 t21 t38 t26 ||| 0.0769231 0.00475132 1 0.020931 2.718 ||| 0-0 1-1 2-1 3-2 4-3 5-4 6-5 ||| 26 2 2
t1 t36 t2 t3 t23 t103 ||| t1 t36 t2 t3 t23 t103 ||| 1 0.0451304 0.4 0.0290325 2.718 ||| 0-0 1-1 2-2 3-3 4-4 5-5 ||| 2 5 2
t1 t36 t2 t3 t23 ||| t1 t2 t11 t3 t23 ||| 0.666667 0.00470354 0.0465116 0.000137092 2.718 ||| 0-0 1-1 2-2 3-3 4-4 ||| 3 43 2
t1 t36 t2 t3 t26 ||| t1 t36 t2 t3 t69 t26 ||| 0.666667 0.0761389 0.008 0.000766629 2.718 ||| 0-0 1-1 2-2 3-3 3-4 4-5 ||| 3 250 2
t1 t36 t2 t3 t4 t1 t36 ||| t1 t36 t2 t3 t4 t1 t36 ||| 0.428571 0.031081 0.75 0.022748 2.718 ||| 0-0 1-1 2-2 3-3 4-4 5-5 6-6 ||| 7 4 3
t1 t36 t2 t3 t45 t23 t46 ||| t1 t36 t2 t3 t45 t23 t46 ||| 0.666667 0.0176279 1 0.0200878 2.718 ||| 0-0 1-1 2-2 3-3 4-4 5-5 6-6 ||| 3 2 2
t1 t36 t2 t3 t45 t24 ||| t1 t36 t2 t3 t45 t24 ||| 1 0.0384696 1 0.0296419 2.718 ||| 0-0 1-1 2-2 3-3 4-4 5-5 ||| 2 2 2
t1 t36 t2 t3 t74 t29 ||| t1 t36 t3 t74 t29 ||| 0.05 0.0117287 0.666667 0.0640244 2.718 ||| 0-0 1-1 2-1 3-2 4-3 5-4 ||| 40 3 2
t1 t36 t2 t3 ||| t1 t36 t2 t3 t69 ||| 0.666667 0.0896135 0.00216216 0.000819275 2.718 ||| 0-0 1-1 2-2 3-3 3-4 ||| 3 925 2
t1 t36 t2 t36 t2 t2 t2 ||| t1 t36 t2 t36 t2 t2 ||| 0.6 0.000954903 0.75 0.0155319 2.718 ||| 0-0 1-1 2-2 3-3 4-4 5-5 ||| 5 4 3
t1 t36 t2 ||| t90 t20 t1 t7 ||| 0.666667 0.00441588 0.00168919 1.25862e-06 2.718 ||| 0-2 1-2 2-3 ||| 3 1184 2
t1 t36 t221 t4 t36 ||| t1 t36 t221 t4 t36 ||| 1 0.0294759 0.5 0.0230926 2.718 ||| 0-0 1-1 2-2 3-3 4-4 ||| 2 4 2
t1 t36 t224 t179 t167 t26 ||| t1 t36 t224 t179 t167 t26 ||| 1 0.0206019 0.75 0.0192111 2.718 ||| 0-0 1-1 2-2 3-3 4-4 5-5 ||| 3 4 3
t1 t36 t224 t179 t2 t3 t26 ||| t1 t36 t2 t3 t26 ||| 0.0154639 4.99237e-07 1 0.0364305 2.718 ||| 0-0 1-1 2-1 3-2 4-2 5-3 6-4 ||| 194 3 3
t1 t36 t224 t179 t2 t3 ||| t1 t36 t2 t3 ||| 0.00397351 5.87589e-07 0.75 0.0389323 2.718 ||| 0-0 1-1 2-1 3-2 4-2 5-3 ||| 755 4 3
t1 t36 t224 t179 t2 ||| t1 t36 t2 ||| 0.00416667 7.75294e-07 0.666667 0.0523822 2.718 ||| 0-0 1-1 2-1 3-2 4-2 ||| 960 6 4
t1 t36 t224 t179 t3 t484 ||| t36 t224 t179 t3 t484 ||| 0.333333 0.00180434 1 0.00569824 2.718 ||| 0-0 1-0 2-1 3-2 4-3 5-4 ||| 6 2 2
t1 t36 t224 t36 t3 ||| t1 t36 t224 t179 t3 ||| 0.025974 0.00839063 1 0.000291998 2.718 ||| 0-0 1-1 2-2 3-3 4-4 ||| 77 2 2
t1 t36 t224 t36 ||| t1 t36 t224 t179 ||| 0.0208333 0.011071 1 0.000392874 2.718 ||| 0-0 1-1 2-2 3-3 ||| 96 2 2
t1 t36 t262 t26 ||| t1 t36 t3 t26 ||| 0.000854701 0.000125172 0.666667 0.0246799 2.718 ||| 0-0 1-1 2-2 3-3 ||| 2340 3 2
t1 t36 t2772 t26 ||| t1 t36 t2772 t26 ||| 0.6 0.0643721 0.75 0.105281 2.718 ||| 0-0 1-1 2-2 3-3 ||| 5 4 3
t1 t36 t3 t100 t209 ||| t1 t36 t3 t100 t209 ||| 0.666667 0.0176042 0.666667 0.0156337 2.718 ||| 0-0 1-1 2-2 3-3 4-4 ||| 3 3 2
t1 t36 t3 t1044 t2 ||| t1 t36 t3 t1044 t2 t2 t2 ||| 0.666667 0.0184627 0.285714 0.00220572 2.718 ||| 0-0 1-1 2-2 3-3 4-4 4-5 4-6 ||| 3 7 2
t1 t36 t3 t13 t1 t3 ||| t1 t36 t3 t442 tco t1 t3 ||| 1 0.0117228 0.0434783 4.78434e-05 2.718 ||| 0-0 1-1 2-2 3-3 3-4 4-5 5-6 ||| 2 46 2
t1 t36 t3 t13 t1 ||| t1 t36 t3 t442 tco t1 ||| 0.666667 0.0154676 0.0289855 6.43717e-05 2.718 ||| 0-0 1-1 2-2 3-3 3-4 4-5 ||| 3 69 2
t1 t36 t3 t163 t225 t74 ||| t1 t36 t3 t163 t225 t74 ||| 0.5 0.0234044 0.666667 0.0183311 2.718 ||| 0-0 1-1 2-2 3-3 4-4 5-5 ||| 4 3 2
t1 t36 t3 t163 t225 ||| t1 t36 t3 t163 t225 ||| 1 0.0414585 1 0.0334147 2.718 ||| 0-0 1-1 2-2 3-3 4-4 ||| 2 2 2
t1 t36 t3 t20 t29 t28 ||| t1 t36 t3 t20 t29 t23 t28 ||| 1 0.0253768 0.4 0.00345555 2.718 ||| 0-0 1-1 2-2 3-3 4-4 5-5 5-6 ||| 2 5 2
t1 t36 t3 t20 t29 t45 t49 ||| t1 t36 t3 t20 t29 t45 t49 ||| 0.666667 0.0356879 0.666667 0.048808 2.718 ||| 0-0 1-1 2-2 3-3 4-4 5-5 6-6 ||| 3 3 2
t1 t36 t3 t21 t1 t38 t21 ||| t1 t36 t3 t92 t1 t3 t39 ||| 1 1.67786e-05 1 1.25819e-05 2.718 ||| 0-0 1-1 2-2 3-3 4-4 5-5 6-6 ||| 2 2 2
t1 t36 t3 t21 t1 t38 ||| t1 t36 t3 t92 t1 t3 ||| 0.666667 0.000321589 0.25 0.000857432 2.718 ||| 0-0 1-1 2-2 3-3 4-4 5-5 ||| 3 8 2
t1 t36 t3 t21 t187 ||| t1 t36 t3 t21 t187 ||| 0.666667 0.0461733 0.333333 0.0367142 2.718 ||| 0-0 1-1 2-2 3-3 4-4 ||| 3 6 2
t1 t36 t3 t21 t51 tco ||| t1 t36 t3 t51 tco ||| 0.09375 0.00106438 1 0.031054 2.718 ||| 0-0 1-1 2-2 4-3 5-4 ||| 32 3 3
t1 t36 t3 t21 t51 ||| t1 t36 t3 t51 ||| 0.115385 0.00230996 1 0.0705618 2.718 ||| 0-0 1-1 2-2 4-3 ||| 26 3 3
t1 t36 t3 t21 ||| t1 t376 t485 t2 t3 t21 ||| 1 0.0243633 0.00881057 3.59329e-09 2.718 ||| 0-0 1-3 2-4 3-5 ||| 2 227 2
t1 t36 t3 t22 tco t2 ||| t1 t36 t3 t22 tco t2 ||| 0.666667 0.0271343 1 0.0182231 2.718 ||| 0-0 1-1 2-2 3-3 4-4 5-5 ||| 3 2 2
t1 t36 t3 t225 ||| t1 t36 t3 t225 ||| 1 0.113278 1 0.113418 2.718 ||| 0-0 1-1 2-2 3-3 ||| 2 2 2
t1 t36 t3 t23 t1149 t20 ||| t1 t36 t3 t23 t762 t20 ||| 0.666667 0.00723681 1 0.00258814 2.718 ||| 0-0 1-1 2-2 3-3 4-4 5-5 ||| 3 2 2
t1 t36 t3 t23 t1149 ||| t1 t36 t3 t23 t762 ||| 1 0.0136699 1 0.00510536 2.718 ||| 0-0 1-1 2-2 3-3 4-4 ||| 2 2 2
t1 t36 t3 t23 t129 ||| t1 t36 t3 t23 t129 ||| 0.666667 0.0484001 0.25 0.0373513 2.718 ||| 0-0 1-1 2-2 3-3 4-4 ||| 3 8 2
t1 t36 t3 t23 t23 t50 t26 ||| t1 t36 t3 t23 t50 t26 ||| 0.142857 0.028529 1 0.0528843 2.718 ||| 0-0 1-1 2-2 3-3 4-3 5-4 6-5 ||| 14 2 2
t1 t36 t3 t23 t23 t50 ||| t1 t36 t3 t23 t50 ||| 0.0930233 0.0335779 0.666667 0.056516 2.718 ||| 0-0 1-1 2-2 3-3 4-3 5-4 ||| 43 6 4
t1 t36 t3 t23 t24 t331 ||| t1 t36 t3 t23 t331 ||| 0.181818 0.00131969 0.666667 0.0184112 2.718 ||| 0-0 0-1 1-1 2-2 3-3 4-3 5-4 ||| 11 3 2
t1 t36 t3 t23 t24 t50 t26 ||| t1 t36 t3 t23 t24 t50 t26 ||| 0.8 0.0210248 1 0.0211948 2.718 ||| 0-0 1-1 2-2 3-3 4-4 5-5 6-6 ||| 5 4 4
t1 t36 t3 t23 t27 t3 t26 ||| t1 t36 t3 t23 t27 t3 t26 ||| 1 0.0442384 1 0.0512777 2.718 ||| 0-0 1-1 2-2 3-3 4-4 5-5 6-6 ||| 2 2 2
t1 t36 t3 t23 t28 t74 t1 ||| t1 t36 t3 t23 t28 t74 t1 ||| 1 0.0310998 1 0.0324209 2.718 ||| 0-0 1-1 2-2 3-3 4-4 5-5 6-6 ||| 3 3 3
t1 t36 t3 t23 t28 t74 ||| t1 t36 t3 t23 t28 t74 ||| 1 0.0477124 0.75 0.0471281 2.718 ||| 0-0 1-1 2-2 3-3 4-4 5-5 ||| 3 4 3
t1 t36 t3 t23 t49 t28 ||| t1 t36 t3 t23 t49 t28 ||| 0.428571 0.0561739 0.75 0.0676346 2.718 ||| 0-0 1-1 2-2 3-3 4-4 5-5 ||| 7 4 3
t1 t36 t3 t26 ||| t1 t2 t3 t214 t26 ||| 1 0.0490902 0.000951475 8.75647e-05 2.718 ||| 0-0 1-1 2-2 3-4 ||| 2 2102 2
t1 t36 t3 t26 ||| t1 t73 t4 t1 t3 t26 ||| 0.666667 0.0269701 0.000951475 6.9779e-06 2.718 ||| 0-0 1-1 1-2 1-3 2-4 3-5 ||| 3 2102 2
t1 t36 t3 t26 ||| t1002 t36 t167 t26 ||| 1 0.0182127 0.00142721 2.41155e-06 2.718 ||| 0-0 1-1 2-2 3-3 ||| 3 2102 3
t1 t36 t3 t26 ||| t394 t36 t3 t26 ||| 1 0.0572365 0.000951475 6.32969e-05 2.718 ||| 0-0 1-1 2-2 3-3 ||| 2 2102 2
t1 t36 t3 t262 t26 ||| t1 t36 t3 t262 t26 ||| 0.5 0.0589597 1 0.0826891 2.718 ||| 0-0 1-1 2-2 3-3 4-4 ||| 4 2 2
t1 t36 t3 t27 t1 t3 t4 ||| t1 t36 t3 t27 t1 t3 t4 ||| 0.6 0.0290798 0.75 0.0335002 2.718 ||| 0-0 1-1 2-2 3-3 4-4 5-5 6-6 ||| 5 4 3
t1 t36 t3 t27 t1 t3 ||| t1 t36 t3 t27 t2 t3 ||| 0.666667 0.00557572 0.0952381 0.00214846 2.718 ||| 0-0 1-1 2-2 3-3 4-4 5-5 ||| 3 21 2
t1 t36 t3 t27 t2 ||| t1 t36 t3 t27 t2 t2 t2 ||| 1 0.0646863 0.166667 0.00995455 2.718 ||| 0-0 1-1 2-2 3-3 4-4 4-5 4-6 ||| 2 12 2
t1 t36 t3 t278 t97 ||| t1 t36 t3 t278 t374 t13 ||| 1 0.00223978 0.181818 2.19706e-05 2.718 ||| 0-0 1-1 2-2 3-3 4-4 4-5 ||| 2 11 2
t1 t36 t3 t28 t36 ||| t1 t36 t3 t28 t36 ||| 1 0.0825322 1 0.0736426 2.718 ||| 0-0 1-1 2-2 3-3 4-4 ||| 2 2 2
t1 t36 t3 t289 t146 ||| t1 t36 t3 t289 t68 ||| 0.0625 0.00235742 0.666667 0.00425736 2.718 ||| 0-0 1-1 2-2 3-3 4-4 ||| 32 3 2
t1 t36 t3 t29 t23 t49 ||| t1 t36 t3 t29 t23 t49 ||| 1 0.073597 0.5 0.0925538 2.718 ||| 0-0 1-1 2-2 3-3 4-4 5-5 ||| 2 4 2
t1 t36 t3 t29 t23 t87 t26 ||| t1 t36 t3 t29 t23 t87 t26 ||| 0.666667 0.0291617 1 0.0294506 2.718 ||| 0-0 1-1 2-2 3-3 4-4 5-5 6-6 ||| 3 2 2
t1 t36 t3 t31 t23 ||| t1 t36 t3 t31 t23 ||| 0.75 0.0989617 0.1875 0.0929401 2.718 ||| 0-0 1-1 2-2 3-3 4-4 ||| 4 16 3
t1 t36 t3 t31 t234 t13 ||| t1 t36 t3 t4 ||| 0.00128205 2.39014e-07 0.666667 0.0164331 2.718 ||| 0-0 1-1 2-2 4-3 5-3 ||| 1560 3 2
t1 t36 t3 t31 t328 t1 t3 ||| t1 t36 t3 t31 t328 t1 t3 ||| 0.5 0.0225178 0.666667 0.0221938 2.718 ||| 0-0 1-1 2-2 3-3 4-4 5-5 6-6 ||| 4 3 2
t1 t36 t3 t31 t328 t1 ||| t1 t36 t3 t31 t328 t1 ||| 0.5 0.0297111 0.666667 0.029861 2.718 ||| 0-0 1-1 2-2 3-3 4-4 5-5 ||| 4 3 2
t1 t36 t3 t31 t328 ||| t1 t36 t3 t31 t328 ||| 0.666667 0.0455819 0.545455 0.043407 2.718 ||| 0-0 1-1 2-2 3-3 4-4 ||| 9 11 6
t1 t36 t3 t31 t61 t29 t26 ||| t1 t3 t31 t61 t29 t26 ||| 0.166667 0.00231997 1 0.0281589 2.718 ||| 0-0 1-0 2-1 3-2 4-3 5-4 6-5 ||| 12 2 2
t1 t36 t3 t31 t61 t29 ||| t1 t3 t31 t61 t29 ||| 0.0952381 0.00273055 1 0.0300926 2.718 ||| 0-0 1-0 2-1 3-2 4-3 5-4 ||| 21 2 2
t1 t36 t3 t36 t65 ||| t1 t36 t3 t36 t65 ||| 1 0.0569073 0.25 0.0489572 2.718 ||| 0-0 1-1 2-2 3-3 4-4 ||| 2 8 2
t1 t36 t3 t39 t30 t3 ||| t1 t36 t3 t39 t30 t3 ||| 0.5 0.0553268 1 0.049908 2.718 ||| 0-0 1-1 2-2 3-3 4-4 5-5 ||| 4 2 2
t1 t36 t3 t39 t30 ||| t1 t36 t3 t39 t30 ||| 0.285714 0.0730009 0.666667 0.0671496 2.718 ||| 0-0 1-1 2-2 3-3 4-4 ||| 7 3 2
t1 t36 t3 t4 t1 t3 t64 ||| t1 t36 t3 t4 t1 t3 t64 ||| 0.333333 0.0174063 0.666667 0.0131329 2.718 ||| 0-0 1-1 2-2 3-3 4-4 5-5 6-6 ||| 6 3 2
t1 t36 t3 t4 t159 t956 t422 ||| t1 t36 t3 t423 t159 t956 t422 ||| 1 0.000103677 1 2.9781e-06 2.718 ||| 0-0 1-1 2-2 3-3 4-4 5-5 6-6 ||| 2 2 2
t1 t36 t3 t4 t159 t956 ||| t1 t36 t3 t423 t159 t956 ||| 0.666667 0.000211735 1 5.74648e-06 2.718 ||| 0-0 1-1 2-2 3-3 4-4 5-5 ||| 3 2 2
t1 t36 t3 t4 t159 ||| t1 t36 t3 t423 t159 ||| 0.666667 0.000508165 0.4 1.83887e-05 2.718 ||| 0-0 1-1 2-2 3-3 4-4 ||| 3 5 2
t1 t36 t3 t4 t2 t3 t4 ||| t1 t36 t3 t4 t2 t3 t4 ||| 0.714286 0.0317104 0.714286 0.0254774 2.718 ||| 0-0 1-1 2-2 3-3 4-4 5-5 6-6 ||| 7 7 5
t1 t36 t3 t4 t3 t45 t23 ||| t1 t36 t3 t4 t3 t45 t23 ||| 0.714286 0.036002 0.833333 0.041838 2.718 ||| 0-0 1-1 2-2 3-3 4-4 5-5 6-6 ||| 7 6 5
t1 t36 t3 t4 t3 t48 t4 ||| t1 t36 t3 t4 t3 t48 t4 ||| 1 0.0280774 1 0.0297769 2.718 ||| 0-0 1-1 2-2 3-3 4-4 5-5 6-6 ||| 2 2 2
t1 t36 t3 t4 t3 t51 tco ||| t1 t36 t3 t4 t3 t51 tco ||| 0.5 0.0135651 1 0.0125221 2.718 ||| 0-0 1-1 2-2 3-3 4-4 5-5 6-6 ||| 4 2 2
t1 t36 t3 t4 t3 t678 ||| t1 t36 t3 t4 t7 t8 t3 ||| 0.153846 0.000707099 1 1.82984e-05 2.718 ||| 0-0 1-1 2-2 3-3 2-4 5-5 4-6 ||| 13 2 2
t1 t36 t3 t4 t30 t3 t20 ||| t1 t36 t3 t4 t30 t3 t20 ||| 0.333333 0.0369546 1 0.0353501 2.718 ||| 0-0 1-1 2-2 3-3 4-4 5-5 6-6 ||| 6 2 2
t1 t36 t3 t4 t30 t3 t21 ||| t1 t36 t3 t21 ||| 0.00858369 7.33073e-06 0.666667 0.104322 2.718 ||| 0-0 1-1 2-2 5-2 6-3 ||| 233 3 2
t1 t36 t3 t4 t30 t3 t96 ||| t1 t36 t3 t4 t30 t3 t96 ||| 0.285714 0.0312086 1 0.0316699 2.718 ||| 0-0 1-1 2-2 3-3 4-4 5-5 6-6 ||| 7 2 2
t1 t36 t3 t4 t30 t3 ||| t1 t36 t2 t3 t4 t30 t3 ||| 0.666667 0.0419264 0.027027 0.00573511 2.718 ||| 0-0 1-1 1-2 2-3 3-4 4-5 5-6 ||| 3 74 2
t1 t36 t3 t4 t30 t36 t3 ||| t1 t36 t3 t4 t30 t36 t3 ||| 0.714286 0.0405691 0.416667 0.0364947 2.718 ||| 0-0 1-1 2-2 3-3 4-4 5-5 6-6 ||| 7 12 5
t1 t36 t3 t4 t36 t3 t45 ||| t1 t36 t3 t4 t36 t3 t45 ||| 0.666667 0.0351562 1 0.0358649 2.718 ||| 0-0 1-1 2-2 3-3 4-4 5-5 6-6 ||| 3 2 2
t1 t36 t3 t410 t2 ||| t1 t36 t3 t410 t2 t2 t2 ||| 0.454545 0.0224023 0.833333 0.00255399 2.718 ||| 0-0 1-1 2-2 3-3 4-4 4-5 4-6 ||| 11 6 5
t1 t36 t3 t410 ||| t1 t36 t3 t410 ||| 0.454545 0.0399767 0.833333 0.0309844 2.718 ||| 0-0 1-1 2-2 3-3 ||| 11 6 5
t1 t36 t3 t45 t23 t103 t46 ||| t1 t36 t3 t45 t23 t103 t46 ||| 0.75 0.0148259 0.75 0.0188476 2.718 ||| 0-0 1-1 2-2 3-3 4-4 5-5 6-6 ||| 4 4 3
t1 t36 t3 t45 t23 t103 ||| t1 t36 t3 t45 t23 t103 ||| 1 0.043903 0.666667 0.0423672 2.718 ||| 0-0 1-1 2-2 3-3 4-4 5-5 ||| 4 6 4
t1 t36 t3 t45 t23 t50 ||| t1 t36 t3 t28 t31 t23 t324 ||| 1 0.00047648 0.111111 2.20605e-06 2.718 ||| 0-0 1-1 2-2 3-3 3-4 4-5 5-6 ||| 2 18 2
t1 t36 t3 t45 t24 t23 ||| t1 t2 t3 t45 t24 t23 ||| 0.666667 0.00822213 0.4 0.00653473 2.718 ||| 0-0 1-1 2-2 3-3 4-4 5-5 ||| 3 5 2
t1 t36 t3 t45 t27 t1 t3 ||| t1 t36 t3 t45 t27 t1 t3 ||| 0.5 0.0310864 1 0.0392151 2.718 ||| 0-0 1-1 2-2 3-3 4-4 5-5 6-6 ||| 4 2 2
t1 t36 t3 t45 t28 t31 ||| t1 t36 t3 t45 t28 t31 ||| 0.5 0.0448352 0.666667 0.0508385 2.718 ||| 0-0 1-1 2-2 3-3 4-4 5-5 ||| 4 3 2
t1 t36 t3 t48 t484 ||| t1 t36 t3 t48 t484 ||| 0.375 0.0492815 1 0.0314319 2.718 ||| 0-0 1-1 2-2 3-3 4-4 ||| 8 3 3
t1 t36 t3 t60 t30 ||| t1 t36 t3 t60 t30 ||| 0.666667 0.0513022 0.4 0.0486003 2.718 ||| 0-0 1-1 2-2 3-3 4-4 ||| 3 5 2
t1 t36 t3 t62 t15 t29 t63 ||| t1 t36 t3 t62 t10 t29 t63 ||| 0.666667 0.00110905 1 0.00357309 2.718 ||| 0-0 1-1 2-2 3-3 4-4 5-5 6-6 ||| 3 2 2
t1 t36 t3 t62 t15 t29 ||| t1 t36 t3 t62 t10 t29 ||| 0.666667 0.00242403 1 0.00821717 2.718 ||| 0-0 1-1 2-2 3-3 4-4 5-5 ||| 3 2 2
t1 t36 t3 t62 t15 ||| t1 t36 t3 t62 t10 ||| 0.666667 0.00374059 0.666667 0.0114194 2.718 ||| 0-0 1-1 2-2 3-3 4-4 ||| 3 3 2
t1 t36 t3 t631 t48 ||| t1 t36 t3 t631 t48 ||| 1 0.0594875 0.666667 0.0594506 2.718 ||| 0-0 1-1 2-2 3-3 4-4 ||| 2 3 2
t1 t36 t3 t631 ||| t1 t36 t3 t631 ||| 1 0.11989 1 0.116879 2.718 ||| 0-0 1-1 2-2 3-3 ||| 2 2 2
t1 t36 t3 t66 t29 t45 ||| t1 t36 t3 t29 t45 ||| 0.133333 0.000170965 0.666667 0.12229 2.718 ||| 0-0 1-1 2-2 4-3 5-4 ||| 15 3 2
t1 t36 t3 t74 t29 t45 ||| t1 t36 t3 t74 t29 t45 ||| 0.25 0.0572578 0.666667 0.0670872 2.718 ||| 0-0 1-1 2-2 3-3 4-4 5-5 ||| 8 3 2
t1 t36 t3 t76 t76 t77 t29 ||| t1 t36 t3 t76 t77 t29 ||| 0.0408163 0.0180278 0.666667 0.0599314 2.718 ||| 0-0 1-1 2-2 3-3 4-3 5-4 6-5 ||| 49 3 2
t1 t36 t3 t83 t2 ||| t1 t36 t3 t83 t2 t2 t2 ||| 0.8 0.0358997 0.8 0.00544086 2.718 ||| 0-0 1-1 2-2 3-3 4-4 4-5 4-6 ||| 5 5 4
t1 t36 t3 t96 t97 t3 t26 ||| t1 t36 t3 t26 ||| 0.000854701 1.175e-06 0.666667 0.250397 2.718 ||| 0-0 1-1 2-2 5-2 6-3 ||| 2340 3 2
t1 t36 t3 t96 t97 t3 ||| t1 t36 t3 ||| 0.000217936 1.38294e-06 0.666667 0.267592 2.718 ||| 0-0 1-1 2-2 5-2 ||| 9177 3 2
t1 t36 t3 t96 ||| t1 t36 t3 t96 t31 ||| 0.666667 0.0647888 0.0224719 0.00198226 2.718 ||| 0-0 1-1 2-2 3-3 3-4 ||| 3 89 2
t1 t36 t3 t98 t130 t31 ||| t1 t36 t3 t98 t130 t31 ||| 1 0.029409 1 0.0244652 2.718 ||| 0-0 1-1 2-2 3-3 4-4 5-5 ||| 2 2 2
t1 t36 t3 t98 t130 ||| t1 t36 t3 t98 t130 ||| 1 0.0507794 0.666667 0.0430053 2.718 ||| 0-0 1-1 2-2 3-3 4-4 ||| 2 3 2
t1 t36 t3 t98 t23 ||| t1 t36 t3 t98 t23 ||| 0.214286 0.105255 0.75 0.108871 2.718 ||| 0-0 1-1 2-2 3-3 4-4 ||| 14 4 3
t1 t36 t3 ||| t1 t105 t36 t3 ||| 0.666667 0.153402 0.000239751 0.000509495 2.718 ||| 0-0 1-1 1-2 2-3 ||| 3 8342 2
t1 t36 t3 ||| t1 t2 t3 t214 ||| 0.666667 0.0577778 0.000239751 9.3578e-05 2.718 ||| 0-0 1-1 2-2 ||| 3 8342 2
t1 t36 t3 ||| t1 t36 t744 ||| 0.666667 0.0974112 0.000239751 1.9622e-05 2.718 ||| 0-0 1-1 2-2 ||| 3 8342 2
t1 t36 t3 ||| t1002 t36 t167 ||| 1 0.0214359 0.000359626 2.57716e-06 2.718 ||| 0-0 1-1 2-2 ||| 3 8342 3
t1 t36 t30 t3 t26 ||| t1 t3 t4 t30 t3 t26 ||| 0.013986 0.00939948 1 0.000259108 2.718 ||| 0-0 1-1 1-2 2-3 3-4 4-5 ||| 143 2 2
t1 t36 t355 t29 ||| t1 t36 t355 t29 ||| 1 0.0948483 0.666667 0.10786 2.718 ||| 0-0 1-1 2-2 3-3 ||| 2 3 2
t1 t36 t36 t3 t289 t254 ||| t1 t36 t3 t289 t98 ||| 0.153846 7.81882e-05 1 0.000562725 2.718 ||| 0-0 1-1 2-1 3-2 4-3 5-3 5-4 ||| 13 2 2
t1 t36 t36 t3 t29 ||| t1 t36 t36 t3 t29 ||| 1 0.108131 0.222222 0.100775 2.718 ||| 0-0 1-1 2-2 3-3 4-4 ||| 2 9 2
t1 t36 t36 t3 t4 t3 t26 ||| t1 t36 t36 t3 t4 t3 t26 ||| 0.333333 0.0547928 1 0.052843 2.718 ||| 0-0 1-1 2-2 3-3 4-4 5-5 6-6 ||| 6 2 2
t1 t36 t36 t3 t64 ||| t1 t36 t3 t979 ||| 1 0.00490763 0.666667 0.000588114 2.718 ||| 0-0 1-1 2-1 3-2 4-3 ||| 2 3 2
t1 t36 t36 t36 t38 ||| t1 t103 t43 t36 t38 ||| 1 0.00257955 1 8.72969e-06 2.718 ||| 0-0 1-1 2-2 3-3 4-4 ||| 2 2 2
t1 t36 t36 t38 t4 t1 ||| t1 t36 t36 t38 t4 t1 ||| 0.5 0.030272 0.666667 0.0248793 2.718 ||| 0-0 1-1 2-2 3-3 4-4 5-5 ||| 4 3 2
t1 t36 t36 t38 t4 ||| t1 t36 t36 t38 t4 ||| 1 0.0464424 0.444444 0.0361654 2.718 ||| 0-0 1-1 2-2 3-3 4-4 ||| 4 9 4
t1 t36 t36 t65 ||| t1 t36 t36 t3 ||| 0.00396825 0.000732612 1 0.0430353 2.718 ||| 0-0 1-1 2-2 3-3 ||| 504 2 2
t1 t36 t36 t7 ||| t1 t36 t7 ||| 0.0606061 0.0854293 0.666667 0.0936988 2.718 ||| 0-0 0-1 1-1 2-1 3-2 ||| 33 3 2
t1 t36 t38 t4 t1 t3 t26 ||| t1 t36 t3 t4 t1 t3 t26 ||| 0.0190476 0.000685287 0.666667 0.021844 2.718 ||| 0-0 1-1 2-2 3-3 4-4 5-5 6-6 ||| 105 3 2
t1 t36 t43 t178 t179 t3 t4 ||| t1 t36 t43 t178 t179 t3 t4 ||| 1 0.0119781 1 0.0100558 2.718 ||| 0-0 1-1 2-2 3-3 4-4 5-5 6-6 ||| 2 2 2
t1 t36 t43 t3 ||| t1 t36 t3 ||| 0.000217936 0.00267568 1 0.189336 2.718 ||| 0-0 1-1 2-1 3-2 ||| 9177 2 2
t1 t36 t465 t76 ||| t1 t36 t465 t76 ||| 0.666667 0.0500945 1 0.0609018 2.718 ||| 0-0 1-1 2-2 3-3 ||| 3 2 2
t1 t36 t470 t4 ||| t1 t36 t3 t4 ||| 0.00128205 0.000630895 0.666667 0.0539872 2.718 ||| 0-0 1-1 2-2 3-3 ||| 1560 3 2
t1 t36 t615 t20 ||| t1 t36 t615 t20 ||| 1 0.0758828 0.666667 0.0482126 2.718 ||| 0-0 1-1 2-2 3-3 ||| 2 3 2
t1 t36 t615 ||| t1 t36 t615 ||| 0.666667 0.143338 0.666667 0.095104 2.718 ||| 0-0 1-1 2-2 ||| 3 3 2
t1 t36 t667 t4 ||| t1 t36 t667 t4 ||| 0.666667 0.0321971 0.666667 0.0351601 2.718 ||| 0-0 1-1 2-2 3-3 ||| 3 3 2
t1 t36 ||| t1 t103 t103 t43 ||| 0.666667 0.133005 0.00016469 4.41769e-07 2.718 ||| 0-0 1-1 1-2 1-3 ||| 3 12144 2
t1 t36 ||| t1002 t36 ||| 1 0.119036 0.000247036 0.000238077 2.718 ||| 0-0 1-1 ||| 3 12144 3
t1 t36 ||| t752 t36 ||| 0.75 0.124072 0.000247036 0.000133038 2.718 ||| 0-0 1-1 ||| 4 12144 3
t1 t38 t173 t105 t1 t36 t36 ||| t1 t38 t173 t105 t43 ||| 1 4.89856e-05 1 4.28276e-05 2.718 ||| 0-0 1-1 2-2 3-3 4-3 5-4 6-4 ||| 2 2 2
t1 t38 t173 t105 t1 ||| t1 t38 t173 t105 ||| 1 0.00117647 1 0.00585461 2.718 ||| 0-0 1-1 2-2 3-3 4-3 ||| 2 2 2
t1 t38 t173 ||| t1 t38 t173 ||| 0.4 0.0595189 1 0.0418206 2.718 ||| 0-0 1-1 2-2 ||| 5 2 2
t1 t38 t21 ||| t1 t470 t92 ||| 0.666667 0.0086754 0.0273973 0.000262144 2.718 ||| 0-0 1-1 2-2 ||| 3 73 2
t1 t38 t26 ||| t1 t2 t35 t35 t26 ||| 1 0.00590784 0.0152672 1.24707e-07 2.718 ||| 0-0 1-1 1-2 1-3 2-4 ||| 2 131 2
t1 t38 t39 t1 ||| t1 t3 t39 t1 ||| 0.0105263 0.00145135 1 0.0429528 2.718 ||| 0-0 1-1 2-2 3-3 ||| 190 2 2
t1 t38 t484 ||| t1 t2 t38 t48 t484 ||| 1 0.0245732 0.0555556 5.98697e-06 2.718 ||| 0-0 1-1 1-2 2-3 2-4 ||| 2 36 2
t1 t38 ||| t1 t2 t35 t35 ||| 0.75 0.00695337 0.005386 1.33271e-07 2.718 ||| 0-0 1-1 1-2 1-3 ||| 4 557 3
